{"learner":{"attributes":{"scikit_learn":"{\"_estimator_type\": \"classifier\"}"},"feature_names":["blood_pressure","serum_cholestoral","oldpeak","major_vessels","sex_0","sex_1","chest_pain_1","chest_pain_2","chest_pain_3","chest_pain_4","fbs_0","fbs_1","restecg_0","restecg_1","restecg_2","exercise_induced_angina_0","exercise_induced_angina_1","slope_1","slope_2","slope_3","thal_3","thal_6","thal_7"],"feature_types":["int","int","int","int","i","i","i","i","i","i","i","i","i","i","i","i","i","i","i","i","i","i","i"],"gradient_booster":{"model":{"gbtree_model_param":{"num_parallel_tree":"1","num_trees":"600"},"iteration_indptr":[0,1,2,3,4,5,6,7,8,9,10,11,12,13,14,15,16,17,18,19,20,21,22,23,24,25,26,27,28,29,30,31,32,33,34,35,36,37,38,39,40,41,42,43,44,45,46,47,48,49,50,51,52,53,54,55,56,57,58,59,60,61,62,63,64,65,66,67,68,69,70,71,72,73,74,75,76,77,78,79,80,81,82,83,84,85,86,87,88,89,90,91,92,93,94,95,96,97,98,99,100,101,102,103,104,105,106,107,108,109,110,111,112,113,114,115,116,117,118,119,120,121,122,123,124,125,126,127,128,129,130,131,132,133,134,135,136,137,138,139,140,141,142,143,144,145,146,147,148,149,150,151,152,153,154,155,156,157,158,159,160,161,162,163,164,165,166,167,168,169,170,171,172,173,174,175,176,177,178,179,180,181,182,183,184,185,186,187,188,189,190,191,192,193,194,195,196,197,198,199,200,201,202,203,204,205,206,207,208,209,210,211,212,213,214,215,216,217,218,219,220,221,222,223,224,225,226,227,228,229,230,231,232,233,234,235,236,237,238,239,240,241,242,243,244,245,246,247,248,249,250,251,252,253,254,255,256,257,258,259,260,261,262,263,264,265,266,267,268,269,270,271,272,273,274,275,276,277,278,279,280,281,282,283,284,285,286,287,288,289,290,291,292,293,294,295,296,297,298,299,300,301,302,303,304,305,306,307,308,309,310,311,312,313,314,315,316,317,318,319,320,321,322,323,324,325,326,327,328,329,330,331,332,333,334,335,336,337,338,339,340,341,342,343,344,345,346,347,348,349,350,351,352,353,354,355,356,357,358,359,360,361,362,363,364,365,366,367,368,369,370,371,372,373,374,375,376,377,378,379,380,381,382,383,384,385,386,387,388,389,390,391,392,393,394,395,396,397,398,399,400,401,402,403,404,405,406,407,408,409,410,411,412,413,414,415,416,417,418,419,420,421,422,423,424,425,426,427,428,429,430,431,432,433,434,435,436,437,438,439,440,441,442,443,444,445,446,447,448,449,450,451,452,453,454,455,456,457,458,459,460,461,462,463,464,465,466,467,468,469,470,471,472,473,474,475,476,477,478,479,480,481,482,483,484,485,486,487,488,489,490,491,492,493,494,495,496,497,498,499,500,501,502,503,504,505,506,507,508,509,510,511,512,513,514,515,516,517,518,519,520,521,522,523,524,525,526,527,528,529,530,531,532,533,534,535,536,537,538,539,540,541,542,543,544,545,546,547,548,549,550,551,552,553,554,555,556,557,558,559,560,561,562,563,564,565,566,567,568,569,570,571,572,573,574,575,576,577,578,579,580,581,582,583,584,585,586,587,588,589,590,591,592,593,594,595,596,597,598,599,600],"tree_info":[0,0,0,0,0,0,0,0,0,0,0,0,0,0,0,0,0,0,0,0,0,0,0,0,0,0,0,0,0,0,0,0,0,0,0,0,0,0,0,0,0,0,0,0,0,0,0,0,0,0,0,0,0,0,0,0,0,0,0,0,0,0,0,0,0,0,0,0,0,0,0,0,0,0,0,0,0,0,0,0,0,0,0,0,0,0,0,0,0,0,0,0,0,0,0,0,0,0,0,0,0,0,0,0,0,0,0,0,0,0,0,0,0,0,0,0,0,0,0,0,0,0,0,0,0,0,0,0,0,0,0,0,0,0,0,0,0,0,0,0,0,0,0,0,0,0,0,0,0,0,0,0,0,0,0,0,0,0,0,0,0,0,0,0,0,0,0,0,0,0,0,0,0,0,0,0,0,0,0,0,0,0,0,0,0,0,0,0,0,0,0,0,0,0,0,0,0,0,0,0,0,0,0,0,0,0,0,0,0,0,0,0,0,0,0,0,0,0,0,0,0,0,0,0,0,0,0,0,0,0,0,0,0,0,0,0,0,0,0,0,0,0,0,0,0,0,0,0,0,0,0,0,0,0,0,0,0,0,0,0,0,0,0,0,0,0,0,0,0,0,0,0,0,0,0,0,0,0,0,0,0,0,0,0,0,0,0,0,0,0,0,0,0,0,0,0,0,0,0,0,0,0,0,0,0,0,0,0,0,0,0,0,0,0,0,0,0,0,0,0,0,0,0,0,0,0,0,0,0,0,0,0,0,0,0,0,0,0,0,0,0,0,0,0,0,0,0,0,0,0,0,0,0,0,0,0,0,0,0,0,0,0,0,0,0,0,0,0,0,0,0,0,0,0,0,0,0,0,0,0,0,0,0,0,0,0,0,0,0,0,0,0,0,0,0,0,0,0,0,0,0,0,0,0,0,0,0,0,0,0,0,0,0,0,0,0,0,0,0,0,0,0,0,0,0,0,0,0,0,0,0,0,0,0,0,0,0,0,0,0,0,0,0,0,0,0,0,0,0,0,0,0,0,0,0,0,0,0,0,0,0,0,0,0,0,0,0,0,0,0,0,0,0,0,0,0,0,0,0,0,0,0,0,0,0,0,0,0,0,0,0,0,0,0,0,0,0,0,0,0,0,0,0,0,0,0,0,0,0,0,0,0,0,0,0,0,0,0,0,0,0,0,0,0,0,0,0,0,0,0,0,0,0,0,0,0,0,0,0,0,0,0,0,0,0,0,0,0,0,0,0,0,0,0,0,0,0,0,0,0,0,0,0,0,0,0,0,0,0,0,0,0,0,0,0,0,0,0,0,0,0,0,0,0,0,0,0,0,0,0,0,0,0,0,0,0,0,0,0,0],"trees":[{"base_weights":[-7.69049E-2,9.172847E-1,-9.0165704E-1,2.2936245E-2,1.4433865E-1,-1.0533961E0,-1.5826024E-4,-3.779173E-3,9.6059805E-3,-0E0,-2.3035122E-2],"categories":[],"categories_nodes":[],"categories_segments":[],"categories_sizes":[],"default_left":[0,0,0,0,0,0,0,0,0,0,0],"id":0,"left_children":[1,3,5,-1,7,9,-1,-1,-1,-1,-1],"loss_changes":[4.4029346E1,3.565937E0,3.7390442E0,0E0,1.3615612E0,2.425642E0,0E0,0E0,0E0,0E0,0E0],"parents":[2147483647,0,0,1,1,2,2,4,4,5,5],"right_children":[2,4,6,-1,8,10,-1,-1,-1,-1,-1],"split_conditions":[1E0,1E0,1E0,2.2936245E-2,1E0,1E0,-1.5826024E-4,-3.779173E-3,9.6059805E-3,-0E0,-2.3035122E-2],"split_indices":[20,17,0,0,1,10,0,0,0,0,0],"split_type":[0,0,0,0,0,0,0,0,0,0,0],"sum_hessian":[4.7674713E1,2.1354298E1,2.6320415E1,1.5146654E1,6.207645E0,2.185091E1,4.4695044E0,3.4762812E0,2.7313638E0,2.2347522E0,1.9616158E1],"tree_param":{"num_deleted":"0","num_feature":"23","num_nodes":"11","size_leaf_vector":"1"}},{"base_weights":[-6.652623E-2,-9.079249E-1,9.155279E-1,-1.3480131E-1,-1.1278778E0,-0E0,2.992132E-2,4.208183E-3,-7.3732766E-3,-2.5153825E-2,-0E0,1.1945513E-2,-5.748291E-1,-1.2917842E-3,-1.4829674E-2],"categories":[],"categories_nodes":[],"categories_segments":[],"categories_sizes":[],"default_left":[0,0,0,0,0,0,0,0,0,0,0,0,0,0,0],"id":1,"left_children":[1,3,5,7,9,11,-1,-1,-1,-1,-1,-1,13,-1,-1],"loss_changes":[4.2301987E1,3.97851E0,1.2502403E1,1.0485517E0,2.9258442E0,5.214422E0,0E0,0E0,0E0,0E0,0E0,0E0,3.5074186E-1,0E0,0E0],"parents":[2147483647,0,0,1,1,2,2,3,3,4,4,5,5,12,12],"right_children":[2,4,6,8,10,12,-1,-1,-1,-1,-1,-1,14,-1,-1],"split_conditions":[1E0,1E0,1E0,1E0,1E0,1E0,2.992132E-2,4.208183E-3,-7.3732766E-3,-2.5153825E-2,-0E0,1.1945513E-2,1E0,-1.2917842E-3,-1.4829674E-2],"split_indices":[9,20,3,12,6,20,0,0,0,0,0,0,14,0,0],"split_type":[0,0,0,0,0,0,0,0,0,0,0,0,0,0,0],"sum_hessian":[4.5178463E1,2.4563335E1,2.0615126E1,6.7135205E0,1.7849815E1,9.185581E0,1.1429545E1,2.4874256E0,4.2260947E0,1.5617588E1,2.2322273E0,4.4753294E0,4.710252E0,2.4800267E0,2.2302248E0],"tree_param":{"num_deleted":"0","num_feature":"23","num_nodes":"15","size_leaf_vector":"1"}},{"base_weights":[-1.2452995E-1,-9.102593E-1,9.124992E-1,-2.3055071E-2,-0E0,-8.163879E-2,3.1255472E-2,-6.985035E-3,7.953249E-3,1.1484887E-2,-1.3340745E-2],"categories":[],"categories_nodes":[],"categories_segments":[],"categories_sizes":[],"default_left":[0,0,0,0,0,0,0,0,0,0,0],"id":2,"left_children":[1,3,5,-1,7,9,-1,-1,-1,-1,-1],"loss_changes":[4.031008E1,6.0903835E0,1.4510454E1,0E0,1.6577445E0,5.464209E0,0E0,0E0,0E0,0E0,0E0],"parents":[2147483647,0,0,1,1,2,2,4,4,5,5],"right_children":[2,4,6,-1,8,10,-1,-1,-1,-1,-1],"split_conditions":[1E0,1E0,1E0,-2.3055071E-2,1E0,1E0,3.1255472E-2,-6.985035E-3,7.953249E-3,1.1484887E-2,-1.3340745E-2],"split_indices":[9,22,3,0,3,15,0,0,0,0,0],"split_type":[0,0,0,0,0,0,0,0,0,0,0],"sum_hessian":[4.3413322E1,2.5017681E1,1.8395641E1,1.9053093E1,5.964587E0,8.190233E0,1.0205407E1,3.4792445E0,2.4853427E0,3.728414E0,4.461819E0],"tree_param":{"num_deleted":"0","num_feature":"23","num_nodes":"11","size_leaf_vector":"1"}},{"base_weights":[-5.448786E-2,-6.3392884E-1,8.4325284E-1,-9.13465E-1,3.7181854E-1,9.8318195E-1,-0E0,-2.9456726E-1,-2.4837181E-2,-8.362302E-4,1.2859676E-2,3.8740367E-1,2.4308216E-2,1.0727577E-1,-1.55248E-2,-0E0,1.270834E-2,-2.2657432E-3,6.1659385E-3],"categories":[],"categories_nodes":[],"categories_segments":[],"categories_sizes":[],"default_left":[0,0,0,0,0,0,0,0,0,0,0,0,0,0,0,0,0,0,0],"id":3,"left_children":[1,3,5,7,9,11,-1,13,-1,-1,-1,15,-1,17,-1,-1,-1,-1,-1],"loss_changes":[2.6471657E1,9.828704E0,2.450904E0,3.725603E0,1.1775826E0,6.4668846E-1,0E0,2.8794615E0,0E0,0E0,0E0,8.957523E-1,0E0,5.622964E-1,0E0,0E0,0E0,0E0,0E0],"parents":[2147483647,0,0,1,1,2,2,3,3,4,4,5,5,7,7,11,11,13,13],"right_children":[2,4,6,8,10,12,-1,14,-1,-1,-1,16,-1,18,-1,-1,-1,-1,-1],"split_conditions":[1E0,1E0,1E0,1E0,1E0,1E0,-0E0,1E0,-2.4837181E-2,-8.362302E-4,1.2859676E-2,1E0,2.4308216E-2,1E0,-1.55248E-2,-0E0,1.270834E-2,-2.2657432E-3,6.1659385E-3],"split_indices":[22,16,8,12,1,18,0,8,0,0,0,1,0,1,0,0,0,0,0],"split_type":[0,0,0,0,0,0,0,0,0,0,0,0,0,0,0,0,0,0,0],"sum_hessian":[4.488624E1,2.7950277E1,1.693596E1,2.224238E1,5.7078967E0,1.4200565E1,2.7353942E0,9.89468E0,1.23477E1,2.9729242E0,2.7349725E0,6.4693623E0,7.7312036E0,6.439261E0,3.4554188E0,3.730905E0,2.7384572E0,3.2203054E0,3.2189553E0],"tree_param":{"num_deleted":"0","num_feature":"23","num_nodes":"19","size_leaf_vector":"1"}},{"base_weights":[8.06464E-3,-8.387029E-1,9.845108E-1,-2.3146199E-2,-1.3952143E-1,2.3520382E-2,2.9489782E-2,-1.6084692E-2,3.678163E-1,1.2337762E-2,-9.626814E-3,9.701249E-3,-0E0],"categories":[],"categories_nodes":[],"categories_segments":[],"categories_sizes":[],"default_left":[0,0,0,0,0,0,0,0,0,0,0,0,0],"id":4,"left_children":[1,3,5,-1,7,9,-1,-1,11,-1,-1,-1,-1],"loss_changes":[4.5969013E1,5.8639984E0,1.1793295E1,0E0,5.3227763E0,4.4928865E0,0E0,0E0,3.9717853E-1,0E0,0E0,0E0,0E0],"parents":[2147483647,0,0,1,1,2,2,4,4,5,5,8,8],"right_children":[2,4,6,-1,8,10,-1,-1,12,-1,-1,-1,-1],"split_conditions":[1E0,1E0,1E0,-2.3146199E-2,1E0,1E0,2.9489782E-2,-1.6084692E-2,1E0,1.2337762E-2,-9.626814E-3,9.701249E-3,-0E0],"split_indices":[9,18,22,0,5,15,0,0,20,0,0,0,0],"split_type":[0,0,0,0,0,0,0,0,0,0,0,0,0],"sum_hessian":[4.956593E1,2.666264E1,2.290329E1,1.6769337E1,9.893303E0,8.933763E0,1.3969526E1,3.693146E0,6.2001567E0,3.982984E0,4.9507785E0,3.9781454E0,2.2220113E0],"tree_param":{"num_deleted":"0","num_feature":"23","num_nodes":"13","size_leaf_vector":"1"}},{"base_weights":[-8.483322E-4,-8.263734E-1,9.6715903E-1,-2.1779452E-2,2.5036478E-2,2.6189134E-1,2.8430507E-2,-0E0,8.717258E-4,1.5925786E-2,-2.503968E-1,2.7597146E-3,-1.061566E-2],"categories":[],"categories_nodes":[],"categories_segments":[],"categories_sizes":[],"default_left":[0,0,0,0,0,0,0,0,0,0,0,0,0],"id":5,"left_children":[1,3,5,-1,7,9,-1,-1,-1,-1,11,-1,-1],"loss_changes":[4.0389088E1,6.4223614E0,5.971117E0,0E0,6.5400708E-3,4.246647E0,0E0,0E0,0E0,0E0,1.2448027E0,0E0,0E0],"parents":[2147483647,0,0,1,1,2,2,4,4,5,5,10,10],"right_children":[2,4,6,-1,8,10,-1,-1,-1,-1,12,-1,-1],"split_conditions":[1E0,1E0,1E0,-2.1779452E-2,1E0,1E0,2.8430507E-2,-0E0,8.717258E-4,1.5925786E-2,1E0,2.7597146E-3,-1.061566E-2],"split_indices":[9,22,22,0,14,15,0,0,0,0,4,0,0],"split_type":[0,0,0,0,0,0,0,0,0,0,0,0,0],"sum_hessian":[4.4577095E1,2.440762E1,2.0169476E1,1.8193928E1,6.2136917E0,9.928222E0,1.0241253E1,2.7310748E0,3.4826167E0,4.236329E0,5.691893E0,2.726099E0,2.965794E0],"tree_param":{"num_deleted":"0","num_feature":"23","num_nodes":"13","size_leaf_vector":"1"}},{"base_weights":[-1.1980525E-2,-7.9302967E-1,1.0321506E0,-2.4027342E-2,2.6208028E-1,2.6222257E-2,-9.520806E-4,1.631328E-2,-1.0635429E-2],"categories":[],"categories_nodes":[],"categories_segments":[],"categories_sizes":[],"default_left":[0,0,0,0,0,0,0,0,0],"id":6,"left_children":[1,3,5,-1,7,-1,-1,-1,-1],"loss_changes":[4.1375725E1,1.3687719E1,6.9586678E0,0E0,5.9535937E0,0E0,0E0,0E0,0E0],"parents":[2147483647,0,0,1,1,2,2,4,4],"right_children":[2,4,6,-1,8,-1,-1,-1,-1],"split_conditions":[1E0,1E0,1E0,-2.4027342E-2,1E0,2.6222257E-2,-9.520806E-4,1.631328E-2,-1.0635429E-2],"split_indices":[3,16,8,0,20,0,0,0,0],"split_type":[0,0,0,0,0,0,0,0,0],"sum_hessian":[4.4783104E1,2.6141384E1,1.8641722E1,1.8684145E1,7.457239E0,1.4450699E1,4.1910224E0,4.493355E0,2.9638846E0],"tree_param":{"num_deleted":"0","num_feature":"23","num_nodes":"9","size_leaf_vector":"1"}},{"base_weights":[1.3366292E-1,9.638205E-1,-6.1033654E-1,2.2540675E-2,2.8159267E-3,-8.1998324E-1,3.925778E-3,-1.9889401E-2,4.876161E-3],"categories":[],"categories_nodes":[],"categories_segments":[],"categories_sizes":[],"default_left":[0,0,0,0,0,0,0,0,0],"id":7,"left_children":[1,3,5,-1,-1,7,-1,-1,-1],"loss_changes":[3.240611E1,2.5861206E0,5.310851E0,0E0,0E0,5.1190996E0,0E0,0E0,0E0],"parents":[2147483647,0,0,1,1,2,2,5,5],"right_children":[2,4,6,-1,-1,8,-1,-1,-1],"split_conditions":[1E0,1E0,1E0,2.2540675E-2,2.8159267E-3,1E0,3.925778E-3,-1.9889401E-2,4.876161E-3],"split_indices":[20,8,16,0,0,2,0,0,0],"split_type":[0,0,0,0,0,0,0,0,0],"sum_hessian":[4.649616E1,2.1683767E1,2.4812393E1,1.6967754E1,4.716011E0,1.9851213E1,4.9611797E0,1.738342E1,2.4677918E0],"tree_param":{"num_deleted":"0","num_feature":"23","num_nodes":"9","size_leaf_vector":"1"}},{"base_weights":[-3.9344013E-2,7.785377E-1,-7.868423E-1,-1.195543E-2,2.3480562E-2,-2.1302575E-2,-4.4690844E-2,-7.4877045E-3,4.93767E-3,7.039677E-3,-3.7307206E-1,-0E0,-1.0618955E-2],"categories":[],"categories_nodes":[],"categories_segments":[],"categories_sizes":[],"default_left":[0,0,0,0,0,0,0,0,0,0,0,0,0],"id":8,"left_children":[1,3,5,7,-1,-1,9,-1,-1,-1,11,-1,-1],"loss_changes":[3.0406815E1,7.6818237E0,5.0120373E0,1.3067671E0,0E0,0E0,1.7564112E0,0E0,0E0,0E0,4.3554914E-1,0E0,0E0],"parents":[2147483647,0,0,1,1,2,2,3,3,6,6,10,10],"right_children":[2,4,6,8,-1,-1,10,-1,-1,-1,12,-1,-1],"split_conditions":[1E0,1E0,1E0,1E0,2.3480562E-2,-2.1302575E-2,1E0,-7.4877045E-3,4.93767E-3,7.039677E-3,1E0,-0E0,-1.0618955E-2],"split_indices":[20,9,9,18,0,0,15,0,0,0,12,0,0],"split_type":[0,0,0,0,0,0,0,0,0,0,0,0,0],"sum_hessian":[4.3727222E1,2.069332E1,2.3033905E1,7.7021427E0,1.2991176E1,1.5606744E1,7.427162E0,2.9729095E0,4.7292333E0,2.9902973E0,4.436865E0,2.220107E0,2.2167578E0],"tree_param":{"num_deleted":"0","num_feature":"23","num_nodes":"13","size_leaf_vector":"1"}},{"base_weights":[-5.7859648E-2,-7.404707E-1,9.491273E-1,3.406492E-1,-2.1818884E-2,2.6387531E-2,9.216626E-2,-1.0064441E-1,1.6665231E-2,6.023706E-3,-1.6903819E-3,3.235801E-4,-4.0710075E-3],"categories":[],"categories_nodes":[],"categories_segments":[],"categories_sizes":[],"default_left":[0,0,0,0,0,0,0,0,0,0,0,0,0],"id":9,"left_children":[1,3,5,7,-1,-1,9,11,-1,-1,-1,-1,-1],"loss_changes":[3.6835823E1,1.3370977E1,6.2164707E0,2.5650823E0,0E0,0E0,4.8585457E-1,1.4016925E-1,0E0,0E0,0E0,0E0,0E0],"parents":[2147483647,0,0,1,1,2,2,3,3,6,6,7,7],"right_children":[2,4,6,8,-1,-1,10,12,-1,-1,-1,-1,-1],"split_conditions":[1E0,1E0,1E0,1E0,-2.1818884E-2,2.6387531E-2,1E0,1E0,1.6665231E-2,6.023706E-3,-1.6903819E-3,3.235801E-4,-4.0710075E-3],"split_indices":[3,15,17,2,0,0,12,17,0,0,0,0,0],"split_type":[0,0,0,0,0,0,0,0,0,0,0,0,0],"sum_hessian":[4.75821E1,2.8950144E1,1.8631958E1,6.9682693E0,2.1981874E1,1.171732E1,6.9146376E0,4.720561E0,2.2477086E0,2.7176647E0,4.196973E0,2.4846685E0,2.2358925E0],"tree_param":{"num_deleted":"0","num_feature":"23","num_nodes":"13","size_leaf_vector":"1"}},{"base_weights":[3.761764E-2,-7.812194E-1,9.433563E-1,-2.2250824E-2,-1.6358707E-2,2.4966555E-2,1.9108601E-1,3.6477616E-1,-1.2711141E-2,1.4532325E-2,-3.635011E-1,-2.1822781E-4,1.3870741E-2,3.026907E-3,-1.41706485E-2],"categories":[],"categories_nodes":[],"categories_segments":[],"categories_sizes":[],"default_left":[0,0,0,0,0,0,0,0,0,0,0,0,0,0,0],"id":10,"left_children":[1,3,5,-1,7,-1,9,11,-1,-1,13,-1,-1,-1,-1],"loss_changes":[4.155408E1,7.160557E0,5.108654E0,0E0,3.6057358E0,0E0,4.255658E0,1.2951866E0,0E0,0E0,1.7520298E0,0E0,0E0,0E0,0E0],"parents":[2147483647,0,0,1,1,2,2,4,4,6,6,7,7,10,10],"right_children":[2,4,6,-1,8,-1,10,12,-1,-1,14,-1,-1,-1,-1],"split_conditions":[1E0,1E0,1E0,-2.2250824E-2,1E0,2.4966555E-2,1E0,1E0,-1.2711141E-2,1.4532325E-2,1E0,-2.1822781E-4,1.3870741E-2,3.026907E-3,-1.41706485E-2],"split_indices":[9,18,20,0,4,0,15,1,0,0,4,0,0,0,0],"split_type":[0,0,0,0,0,0,0,0,0,0,0,0,0,0,0],"sum_hessian":[5.0004276E1,2.6362637E1,2.3641638E1,1.726054E1,9.102096E0,1.5225213E1,8.416426E0,6.197204E0,2.9048917E0,3.9918215E0,4.4246044E0,3.9618893E0,2.2353146E0,2.218554E0,2.2060504E0],"tree_param":{"num_deleted":"0","num_feature":"23","num_nodes":"15","size_leaf_vector":"1"}},{"base_weights":[-2.4907045E-2,-7.220847E-1,9.5591944E-1,-1.0474687E0,1.9253753E-1,1.2193558E0,-4.7580535E-3,-2.2937113E-2,-3.0509839E-3,1.2252153E-2,-5.3820377E-3,2.7771818E-2,7.2525768E-3],"categories":[],"categories_nodes":[],"categories_segments":[],"categories_sizes":[],"default_left":[0,0,0,0,0,0,0,0,0,0,0,0,0],"id":11,"left_children":[1,3,5,7,9,11,-1,-1,-1,-1,-1,-1,-1],"loss_changes":[3.4845856E1,9.669682E0,7.706894E0,1.2315712E0,2.5441039E0,7.379379E-1,0E0,0E0,0E0,0E0,0E0,0E0,0E0],"parents":[2147483647,0,0,1,1,2,2,3,3,4,4,5,5],"right_children":[2,4,6,8,10,12,-1,-1,-1,-1,-1,-1,-1],"split_conditions":[1E0,1E0,1E0,1E0,1E0,1E0,-4.7580535E-3,-2.2937113E-2,-3.0509839E-3,1.2252153E-2,-5.3820377E-3,2.7771818E-2,7.2525768E-3],"split_indices":[3,22,8,0,12,4,0,0,0,0,0,0,0],"split_type":[0,0,0,0,0,0,0,0,0,0,0,0,0],"sum_hessian":[4.499848E1,2.6884277E1,1.8114206E1,1.9669594E1,7.2146835E0,1.4924282E1,3.1899235E0,1.6742216E1,2.9273765E0,3.4905798E0,3.7241037E0,1.071233E1,4.2119527E0],"tree_param":{"num_deleted":"0","num_feature":"23","num_nodes":"13","size_leaf_vector":"1"}},{"base_weights":[1.4506352E-1,-7.0164615E-1,8.927703E-1,-9.2020285E-1,4.7524185E-3,2.417551E-2,1.3341057E-1,-3.5332548E-3,-2.1364182E-2,-4.16999E-3,9.371453E-3],"categories":[],"categories_nodes":[],"categories_segments":[],"categories_sizes":[],"default_left":[0,0,0,0,0,0,0,0,0,0,0],"id":12,"left_children":[1,3,5,7,-1,-1,9,-1,-1,-1,-1],"loss_changes":[3.0143051E1,5.4035816E0,5.276022E0,1.2769661E0,0E0,0E0,1.5988243E0,0E0,0E0,0E0,0E0],"parents":[2147483647,0,0,1,1,2,2,3,3,6,6],"right_children":[2,4,6,8,-1,-1,10,-1,-1,-1,-1],"split_conditions":[1E0,1E0,1E0,1E0,4.7524185E-3,2.417551E-2,1E0,-3.5332548E-3,-2.1364182E-2,-4.16999E-3,9.371453E-3],"split_indices":[9,2,17,20,0,0,22,0,0,0,0],"split_type":[0,0,0,0,0,0,0,0,0,0,0],"sum_hessian":[4.1583824E1,1.9462097E1,2.2121725E1,1.6010468E1,3.451629E0,1.4181326E1,7.9404E0,3.9747329E0,1.2035735E1,4.196464E0,3.743936E0],"tree_param":{"num_deleted":"0","num_feature":"23","num_nodes":"11","size_leaf_vector":"1"}},{"base_weights":[-6.253912E-3,-6.788213E-1,9.2736036E-1,-1.0534344E0,1.738471E-1,1.1279012E-1,2.7293624E-2,-3.51799E-3,-2.240333E-2,1.1430374E-2,-2.0259914E-1,-3.686199E-1,1.4072567E-2,3.110408E-4,-7.0723835E-3,-0E0,-1.1056446E-2],"categories":[],"categories_nodes":[],"categories_segments":[],"categories_sizes":[],"default_left":[0,0,0,0,0,0,0,0,0,0,0,0,0,0,0,0,0],"id":13,"left_children":[1,3,5,7,9,11,-1,-1,-1,-1,13,15,-1,-1,-1,-1,-1],"loss_changes":[3.09555E1,9.927804E0,6.5668907E0,3.562374E-1,2.0987055E0,3.8636374E0,0E0,0E0,0E0,0E0,3.3822152E-1,6.241598E-1,0E0,0E0,0E0,0E0,0E0],"parents":[2147483647,0,0,1,1,2,2,3,3,4,4,5,5,10,10,11,11],"right_children":[2,4,6,8,10,12,-1,-1,-1,-1,14,16,-1,-1,-1,-1,-1],"split_conditions":[1E0,1E0,1E0,1E0,1E0,1E0,2.7293624E-2,-3.51799E-3,-2.240333E-2,1.1430374E-2,1E0,1E0,1.4072567E-2,3.110408E-4,-7.0723835E-3,-0E0,-1.1056446E-2],"split_indices":[3,22,9,15,15,18,0,0,0,0,1,12,0,0,0,0,0],"split_type":[0,0,0,0,0,0,0,0,0,0,0,0,0,0,0,0,0],"sum_hessian":[4.3370148E1,2.5809887E1,1.756026E1,1.760393E1,8.205956E0,7.612325E0,9.947935E0,2.226748E0,1.5377182E1,3.4928584E0,4.713098E0,4.6298122E0,2.9825132E0,2.4871283E0,2.2259696E0,2.1951408E0,2.4346714E0],"tree_param":{"num_deleted":"0","num_feature":"23","num_nodes":"17","size_leaf_vector":"1"}},{"base_weights":[5.2966934E-2,8.9015E-1,-6.6351914E-1,1.4159524E-1,2.2923108E-2,-2.2119548E-2,2.4892245E-1,-6.642364E-3,9.259261E-3,-6.5137837E-3,1.6820712E-2],"categories":[],"categories_nodes":[],"categories_segments":[],"categories_sizes":[],"default_left":[0,0,0,0,0,0,0,0,0,0,0],"id":14,"left_children":[1,3,5,7,-1,-1,9,-1,-1,-1,-1],"loss_changes":[2.8451094E1,3.4497623E0,1.1298555E1,1.8879501E0,0E0,0E0,4.542797E0,0E0,0E0,0E0,0E0],"parents":[2147483647,0,0,1,1,2,2,3,3,6,6],"right_children":[2,4,6,8,-1,-1,10,-1,-1,-1,-1],"split_conditions":[1E0,1E0,1E0,1E0,2.2923108E-2,-2.2119548E-2,1E0,-6.642364E-3,9.259261E-3,-6.5137837E-3,1.6820712E-2],"split_indices":[20,9,3,18,0,0,9,0,0,0,0],"split_type":[0,0,0,0,0,0,0,0,0,0,0],"sum_hessian":[4.1402367E1,1.8886408E1,2.251596E1,6.1995535E0,1.2686853E1,1.48822E1,7.6337595E0,2.2137184E0,3.9858353E0,4.387771E0,3.2459886E0],"tree_param":{"num_deleted":"0","num_feature":"23","num_nodes":"11","size_leaf_vector":"1"}},{"base_weights":[3.4843273E-2,8.629079E-1,-7.296563E-1,2.8905353E-1,2.4031272E-2,-1.8097756E-2,5.962733E-4,-6.1741326E-2,1.1926154E-2,-3.482957E-3,1.3893871E-3],"categories":[],"categories_nodes":[],"categories_segments":[],"categories_sizes":[],"default_left":[0,0,0,0,0,0,0,0,0,0,0],"id":15,"left_children":[1,3,5,7,-1,-1,-1,9,-1,-1,-1],"loss_changes":[3.1048672E1,3.2447014E0,3.6400232E0,1.6104542E0,0E0,0E0,0E0,1.818501E-1,0E0,0E0,0E0],"parents":[2147483647,0,0,1,1,2,2,3,3,7,7],"right_children":[2,4,6,8,-1,-1,-1,10,-1,-1,-1],"split_conditions":[1E0,1E0,1E0,1E0,2.4031272E-2,-1.8097756E-2,5.962733E-4,1E0,1.1926154E-2,-3.482957E-3,1.3893871E-3],"split_indices":[20,1,16,16,0,0,0,0,0,0,0],"split_type":[0,0,0,0,0,0,0,0,0,0,0],"sum_hessian":[4.301992E1,2.0591623E1,2.2428295E1,9.924931E0,1.0666694E1,1.797083E1,4.4574647E0,5.4494643E0,4.4754663E0,3.227262E0,2.2222025E0],"tree_param":{"num_deleted":"0","num_feature":"23","num_nodes":"11","size_leaf_vector":"1"}},{"base_weights":[4.0355064E-2,7.9267967E-1,-5.938868E-1,1.9977698E-1,1.101046E0,-9.4055015E-1,1.5769888E-1,1.4952479E-2,-6.6178525E-3,2.4480138E-2,4.239445E-3,-2.0511912E-2,-1.7331564E-3,-1.0746349E-2,1.6627833E-2],"categories":[],"categories_nodes":[],"categories_segments":[],"categories_sizes":[],"default_left":[0,0,0,0,0,0,0,0,0,0,0,0,0,0,0],"id":16,"left_children":[1,3,5,7,9,11,13,-1,-1,-1,-1,-1,-1,-1,-1],"loss_changes":[2.300444E1,3.1187038E0,7.3961897E0,4.1528387E0,4.2614365E-1,8.5144997E-1,6.3709836E0,0E0,0E0,0E0,0E0,0E0,0E0,0E0,0E0],"parents":[2147483647,0,0,1,1,2,2,3,3,4,4,5,5,6,6],"right_children":[2,4,6,8,10,12,14,-1,-1,-1,-1,-1,-1,-1,-1],"split_conditions":[1E0,1E0,1E0,1E0,1E0,1E0,1E0,1.4952479E-2,-6.6178525E-3,2.4480138E-2,4.239445E-3,-2.0511912E-2,-1.7331564E-3,-1.0746349E-2,1.6627833E-2],"split_indices":[20,3,3,15,8,0,5,0,0,0,0,0,0,0,0],"split_type":[0,0,0,0,0,0,0,0,0,0,0,0,0,0,0],"sum_hessian":[4.216847E1,1.9090101E1,2.3078367E1,8.444953E0,1.0645149E1,1.5459588E1,7.61878E0,3.7371852E0,4.7077675E0,8.161305E0,2.4838436E0,1.32977E1,2.1618881E0,3.9028335E0,3.7159467E0],"tree_param":{"num_deleted":"0","num_feature":"23","num_nodes":"15","size_leaf_vector":"1"}},{"base_weights":[6.1872948E-2,-6.372667E-1,1.0308558E0,-2.0519018E-2,1.9193742E-1,2.266815E-2,3.6772462E-3,-1.9625899E-1,1.588693E-2,-7.816855E-3,1.7516173E-3],"categories":[],"categories_nodes":[],"categories_segments":[],"categories_sizes":[],"default_left":[0,0,0,0,0,0,0,0,0,0,0],"id":17,"left_children":[1,3,5,-1,7,-1,-1,9,-1,-1,-1],"loss_changes":[3.286948E1,9.833671E0,8.7753105E-1,0E0,3.2416174E0,0E0,0E0,6.662804E-1,0E0,0E0,0E0],"parents":[2147483647,0,0,1,1,2,2,4,4,7,7],"right_children":[2,4,6,-1,8,-1,-1,10,-1,-1,-1],"split_conditions":[1E0,1E0,1E0,-2.0519018E-2,1E0,2.266815E-2,3.6772462E-3,1E0,1.588693E-2,-7.816855E-3,1.7516173E-3],"split_indices":[22,9,8,0,2,0,0,16,0,0,0],"split_type":[0,0,0,0,0,0,0,0,0,0,0],"sum_hessian":[4.2493805E1,2.5160574E1,1.7333233E1,1.6810253E1,8.350321E0,1.4345703E1,2.9875295E0,6.1061234E0,2.2441974E0,3.3697176E0,2.7364056E0],"tree_param":{"num_deleted":"0","num_feature":"23","num_nodes":"11","size_leaf_vector":"1"}},{"base_weights":[3.0288223E-2,-6.8056494E-1,7.764023E-1,-1.9328468E-2,1.2186272E-2,3.7560222E-1,2.3767939E-2,-9.138778E-3,1.099115E-2,-6.751317E-2,1.4827104E-2,5.603627E-3,-9.759674E-3],"categories":[],"categories_nodes":[],"categories_segments":[],"categories_sizes":[],"default_left":[0,0,0,0,0,0,0,0,0,0,0,0,0],"id":18,"left_children":[1,3,5,-1,7,9,-1,-1,-1,11,-1,-1,-1],"loss_changes":[2.595475E1,5.1714916E0,2.301055E0,0E0,3.3061614E0,3.002304E0,0E0,0E0,0E0,1.9259449E0,0E0,0E0,0E0],"parents":[2147483647,0,0,1,1,2,2,4,4,5,5,9,9],"right_children":[2,4,6,-1,8,10,-1,-1,-1,12,-1,-1,-1],"split_conditions":[1E0,1E0,1E0,-1.9328468E-2,1E0,1E0,2.3767939E-2,-9.138778E-3,1.099115E-2,1E0,1.4827104E-2,5.603627E-3,-9.759674E-3],"split_indices":[9,18,2,0,22,22,0,0,0,12,0,0,0],"split_type":[0,0,0,0,0,0,0,0,0,0,0,0,0],"sum_hessian":[4.2911457E1,2.197269E1,2.0938766E1,1.4919729E1,7.052962E0,1.3766638E1,7.17213E0,3.806626E0,3.2463355E0,7.0838575E0,6.68278E0,4.1650176E0,2.91884E0],"tree_param":{"num_deleted":"0","num_feature":"23","num_nodes":"13","size_leaf_vector":"1"}},{"base_weights":[8.9880385E-2,8.650499E-1,-5.701829E-1,1.1931337E-1,2.1634232E-2,-8.063281E-1,3.8603973E-2,-4.2466754E-3,8.731678E-3,-9.01907E-1,-1.0860044E-3,-4.843971E-3,6.0074613E-3,-2.1317152E-2,-3.518807E-1,-1.0791218E-2,1.0640938E-3],"categories":[],"categories_nodes":[],"categories_segments":[],"categories_sizes":[],"default_left":[0,0,0,0,0,0,0,0,0,0,0,0,0,0,0,0,0],"id":19,"left_children":[1,3,5,7,-1,9,11,-1,-1,13,-1,-1,-1,-1,15,-1,-1],"loss_changes":[2.5389463E1,3.0514774E0,4.1062613E0,1.2389832E0,0E0,1.0789995E0,9.744257E-1,0E0,0E0,1.3014412E-1,0E0,0E0,0E0,0E0,8.43094E-1,0E0,0E0],"parents":[2147483647,0,0,1,1,2,2,3,3,5,5,6,6,9,9,14,14],"right_children":[2,4,6,8,-1,10,12,-1,-1,14,-1,-1,-1,-1,16,-1,-1],"split_conditions":[1E0,1E0,1E0,1E0,2.1634232E-2,1E0,1E0,-4.2466754E-3,8.731678E-3,1E0,-1.0860044E-3,-4.843971E-3,6.0074613E-3,-2.1317152E-2,1E0,-1.0791218E-2,1.0640938E-3],"split_indices":[20,9,9,1,0,6,5,0,0,14,0,0,0,0,7,0,0],"split_type":[0,0,0,0,0,0,0,0,0,0,0,0,0,0,0,0,0],"sum_hessian":[4.3614426E1,1.9769142E1,2.3845282E1,5.705686E0,1.4063457E1,1.671622E1,7.1290617E0,2.966565E0,2.7391214E0,1.4064809E1,2.651412E0,3.1790822E0,3.9499795E0,8.387554E0,5.677254E0,3.536552E0,2.1407022E0],"tree_param":{"num_deleted":"0","num_feature":"23","num_nodes":"17","size_leaf_vector":"1"}},{"base_weights":[-1.3736133E-1,5.8872825E-1,-7.00825E-1,1.939543E-2,1.3507335E-1,-8.4976053E-1,5.2130595E-3,-1.8341917E-3,6.284097E-3,-0E0,-1.9555312E-2],"categories":[],"categories_nodes":[],"categories_segments":[],"categories_sizes":[],"default_left":[0,0,0,0,0,0,0,0,0,0,0],"id":20,"left_children":[1,3,5,-1,7,9,-1,-1,-1,-1,-1],"loss_changes":[2.0716908E1,3.2331104E0,4.8350716E0,0E0,6.949929E-1,2.8866558E0,0E0,0E0,0E0,0E0,0E0],"parents":[2147483647,0,0,1,1,2,2,4,4,5,5],"right_children":[2,4,6,-1,8,10,-1,-1,-1,-1,-1],"split_conditions":[1E0,1E0,1E0,1.939543E-2,1E0,1E0,5.2130595E-3,-1.8341917E-3,6.284097E-3,-0E0,-1.9555312E-2],"split_indices":[20,15,2,0,14,15,0,0,0,0,0],"split_type":[0,0,0,0,0,0,0,0,0,0,0],"sum_hessian":[4.4556847E1,1.9255018E1,2.530183E1,8.370431E0,1.0884587E1,2.2390131E1,2.9116983E0,4.956804E0,5.9277835E0,3.1933498E0,1.9196781E1],"tree_param":{"num_deleted":"0","num_feature":"23","num_nodes":"11","size_leaf_vector":"1"}},{"base_weights":[1.1893803E-1,-6.143141E-1,9.0929407E-1,-1.7286487E-2,2.9125635E-2,2.3750123E-2,2.9925242E-1,9.12313E-3,-6.2665576E-3,1.4721317E-2,-3.0237618E-3],"categories":[],"categories_nodes":[],"categories_segments":[],"categories_sizes":[],"default_left":[0,0,0,0,0,0,0,0,0,0,0],"id":21,"left_children":[1,3,5,-1,7,-1,9,-1,-1,-1,-1],"loss_changes":[2.7351458E1,4.1980658E0,2.4745865E0,0E0,1.8552233E0,0E0,2.6778932E0,0E0,0E0,0E0,0E0],"parents":[2147483647,0,0,1,1,2,2,4,4,6,6],"right_children":[2,4,6,-1,8,-1,10,-1,-1,-1,-1],"split_conditions":[1E0,1E0,1E0,-1.7286487E-2,1E0,2.3750123E-2,1E0,9.12313E-3,-6.2665576E-3,1.4721317E-2,-3.0237618E-3],"split_indices":[9,3,20,0,20,0,15,0,0,0,0],"split_type":[0,0,0,0,0,0,0,0,0,0,0],"sum_hessian":[4.12025E1,2.1588734E1,1.9613768E1,1.5029823E1,6.5589104E0,1.1294993E1,8.318774E0,2.7356148E0,3.8232954E0,3.4829226E0,4.835851E0],"tree_param":{"num_deleted":"0","num_feature":"23","num_nodes":"11","size_leaf_vector":"1"}},{"base_weights":[-5.735814E-2,-8.2222086E-1,7.867523E-1,-1.933683E-2,-0E0,2.1540867E-2,3.3707276E-2,3.2342183E-3,-4.8385326E-2,-0E0,-1.8869023E-3],"categories":[],"categories_nodes":[],"categories_segments":[],"categories_sizes":[],"default_left":[0,0,0,0,0,0,0,0,0,0,0],"id":22,"left_children":[1,3,5,-1,-1,-1,7,-1,9,-1,-1],"loss_changes":[3.1986382E1,3.0796127E0,4.8117905E0,0E0,0E0,0E0,1.4947931E-1,0E0,2.8752485E-2,0E0,0E0],"parents":[2147483647,0,0,1,1,2,2,6,6,8,8],"right_children":[2,4,6,-1,-1,-1,8,-1,10,-1,-1],"split_conditions":[1E0,1E0,1E0,-1.933683E-2,-0E0,2.1540867E-2,1E0,3.2342183E-3,1E0,-0E0,-1.8869023E-3],"split_indices":[9,2,20,0,0,0,15,0,12,0,0],"split_type":[0,0,0,0,0,0,0,0,0,0,0],"sum_hessian":[4.3526184E1,2.3000118E1,2.0526066E1,1.9098103E1,3.902016E0,1.369171E1,6.834355E0,2.485504E0,4.3488507E0,2.185704E0,2.163147E0],"tree_param":{"num_deleted":"0","num_feature":"23","num_nodes":"11","size_leaf_vector":"1"}},{"base_weights":[-5.8080227E-4,-7.5455153E-1,8.9794856E-1,-9.858245E-1,-0E0,1.2215519E0,-5.776534E-3,-2.112108E-2,-2.6095791E-3,-6.294138E-3,4.8759906E-3,8.116085E-3,2.7934639E-2],"categories":[],"categories_nodes":[],"categories_segments":[],"categories_sizes":[],"default_left":[0,0,0,0,0,0,0,0,0,0,0,0,0],"id":23,"left_children":[1,3,5,7,9,11,-1,-1,-1,-1,-1,-1,-1],"loss_changes":[3.309678E1,4.4997425E0,9.766661E0,5.6729126E-1,9.6531475E-1,5.3152657E-1,0E0,0E0,0E0,0E0,0E0,0E0,0E0],"parents":[2147483647,0,0,1,1,2,2,3,3,4,4,5,5],"right_children":[2,4,6,8,10,12,-1,-1,-1,-1,-1,-1,-1],"split_conditions":[1E0,1E0,1E0,1E0,1E0,1E0,-5.776534E-3,-2.112108E-2,-2.6095791E-3,-6.294138E-3,4.8759906E-3,8.116085E-3,2.7934639E-2],"split_indices":[3,22,4,2,9,18,0,0,0,0,0,0,0],"split_type":[0,0,0,0,0,0,0,0,0,0,0,0,0],"sum_hessian":[4.2895836E1,2.3706564E1,1.918927E1,1.7275837E1,6.430728E0,1.5141251E1,4.048019E0,1.5098382E1,2.1774547E0,2.7182293E0,3.7124987E0,4.6374707E0,1.050378E1],"tree_param":{"num_deleted":"0","num_feature":"23","num_nodes":"13","size_leaf_vector":"1"}},{"base_weights":[-9.745938E-3,-7.0611995E-1,9.028208E-1,-2.244638E-2,2.6485622E-1,-3.9150685E-2,2.5740335E-2,-5.135961E-3,1.549105E-2,-1.0039038E-2,6.426691E-3],"categories":[],"categories_nodes":[],"categories_segments":[],"categories_sizes":[],"default_left":[0,0,0,0,0,0,0,0,0,0,0],"id":24,"left_children":[1,3,5,-1,7,9,-1,-1,-1,-1,-1],"loss_changes":[3.199956E1,1.2659891E1,8.257862E0,0E0,3.5964985E0,2.029894E0,0E0,0E0,0E0,0E0,0E0],"parents":[2147483647,0,0,1,1,2,2,4,4,5,5],"right_children":[2,4,6,-1,8,10,-1,-1,-1,-1,-1],"split_conditions":[1E0,1E0,1E0,-2.244638E-2,1E0,1E0,2.5740335E-2,-5.135961E-3,1.549105E-2,-1.0039038E-2,6.426691E-3],"split_indices":[3,22,9,0,9,5,0,0,0,0,0],"split_type":[0,0,0,0,0,0,0,0,0,0,0],"sum_hessian":[4.4406734E1,2.5696066E1,1.8710667E1,1.7803259E1,7.892808E0,6.05029E0,1.2660377E1,4.442359E0,3.450449E0,2.3766212E0,3.6736686E0],"tree_param":{"num_deleted":"0","num_feature":"23","num_nodes":"11","size_leaf_vector":"1"}},{"base_weights":[1.697846E-1,8.1466883E-1,-4.0645796E-1,8.61983E-2,2.226815E-2,-1.551977E-2,2.0239708E-1,-9.120918E-3,1.0109293E-2,-6.397721E-2,7.986144E-3,1.5350428E-3,-4.151107E-3],"categories":[],"categories_nodes":[],"categories_segments":[],"categories_sizes":[],"default_left":[0,0,0,0,0,0,0,0,0,0,0,0,0],"id":25,"left_children":[1,3,5,7,-1,-1,9,-1,-1,11,-1,-1,-1],"loss_changes":[1.7721214E1,4.3252993E0,6.3218117E0,2.9594343E0,0E0,0E0,7.6284313E-1,0E0,0E0,2.1884736E-1,0E0,0E0,0E0],"parents":[2147483647,0,0,1,1,2,2,3,3,6,6,9,9],"right_children":[2,4,6,8,-1,-1,10,-1,-1,12,-1,-1,-1],"split_conditions":[1E0,1E0,1E0,1E0,2.226815E-2,-1.551977E-2,1E0,-9.120918E-3,1.0109293E-2,1E0,7.986144E-3,1.5350428E-3,-4.151107E-3],"split_indices":[20,9,18,18,0,0,9,0,0,12,0,0,0],"split_type":[0,0,0,0,0,0,0,0,0,0,0,0,0],"sum_hessian":[4.1794804E1,1.9300753E1,2.2494051E1,6.9320755E0,1.2368677E1,1.3690121E1,8.803931E0,2.6999679E0,4.2321076E0,4.171049E0,4.632882E0,2.1081026E0,2.0629463E0],"tree_param":{"num_deleted":"0","num_feature":"23","num_nodes":"13","size_leaf_vector":"1"}},{"base_weights":[2.4031106E-2,8.3696336E-1,-6.5982324E-1,3.144683E-1,2.4072021E-2,-8.550623E-1,9.545463E-3,3.9309267E-2,5.0079936E-1,-1.9904578E-2,8.926616E-4,-7.050029E-4,2.477758E-3,-0E0,1.3926649E-2],"categories":[],"categories_nodes":[],"categories_segments":[],"categories_sizes":[],"default_left":[0,0,0,0,0,0,0,0,0,0,0,0,0,0,0],"id":26,"left_children":[1,3,5,7,-1,9,-1,11,13,-1,-1,-1,-1,-1,-1],"loss_changes":[2.7341654E1,2.878004E0,7.2057343E0,5.291096E-1,0E0,3.34099E0,0E0,8.866514E-2,6.594595E-1,0E0,0E0,0E0,0E0,0E0,0E0],"parents":[2147483647,0,0,1,1,2,2,3,3,5,5,7,7,8,8],"right_children":[2,4,6,8,-1,10,-1,12,14,-1,-1,-1,-1,-1,-1],"split_conditions":[1E0,1E0,1E0,1E0,2.4072021E-2,1E0,9.545463E-3,1E0,1E0,-1.9904578E-2,8.926616E-4,-7.050029E-4,2.477758E-3,-0E0,1.3926649E-2],"split_indices":[20,16,2,9,0,16,0,8,14,0,0,0,0,0,0],"split_type":[0,0,0,0,0,0,0,0,0,0,0,0,0,0,0],"sum_hessian":[4.3138195E1,1.9535795E1,2.3602402E1,1.057871E1,8.957085E0,2.0928894E1,2.6735075E0,6.1714506E0,4.407259E0,1.8024534E1,2.9043593E0,2.953149E0,3.2183015E0,2.2158597E0,2.1913996E0],"tree_param":{"num_deleted":"0","num_feature":"23","num_nodes":"15","size_leaf_vector":"1"}},{"base_weights":[6.541885E-2,-6.6984236E-1,8.474484E-1,3.815474E-2,-1.833127E-2,2.9562706E-1,2.2619942E-2,3.1153888E-1,-6.7392765E-3,-1.2840983E-1,1.4406766E-2,9.868256E-3,-2.1107482E-4,1.261601E-3,-6.4566126E-3],"categories":[],"categories_nodes":[],"categories_segments":[],"categories_sizes":[],"default_left":[0,0,0,0,0,0,0,0,0,0,0,0,0,0,0],"id":27,"left_children":[1,3,5,7,-1,9,-1,11,-1,13,-1,-1,-1,-1,-1],"loss_changes":[3.0272745E1,5.0180607E0,2.7021809E0,1.3024788E0,0E0,2.7295058E0,0E0,5.495606E-1,0E0,4.4046086E-1,0E0,0E0,0E0,0E0,0E0],"parents":[2147483647,0,0,1,1,2,2,3,3,5,5,7,7,9,9],"right_children":[2,4,6,8,-1,10,-1,12,-1,14,-1,-1,-1,-1,-1],"split_conditions":[1E0,1E0,1E0,1E0,-1.833127E-2,1E0,2.2619942E-2,1E0,-6.7392765E-3,1E0,1.4406766E-2,9.868256E-3,-2.1107482E-4,1.261601E-3,-6.4566126E-3],"split_indices":[9,20,3,17,0,22,0,14,0,17,0,0,0,0,0],"split_type":[0,0,0,0,0,0,0,0,0,0,0,0,0,0,0],"sum_hessian":[4.6625137E1,2.412115E1,2.2503988E1,6.679351E0,1.74418E1,9.9578705E0,1.2546118E1,4.466115E0,2.213236E0,5.7945614E0,4.1633086E0,2.2313826E0,2.2347324E0,3.42205E0,2.3725114E0],"tree_param":{"num_deleted":"0","num_feature":"23","num_nodes":"15","size_leaf_vector":"1"}},{"base_weights":[5.3148333E-2,7.9691166E-1,-5.4155564E-1,4.879316E-2,2.262969E-2,-7.4168783E-1,9.718698E-3,-4.0399004E-3,7.18054E-3,1.5389975E-3,-9.172387E-1,-2.0664014E-2,-2.4880931E-1,4.426264E-3,-1.2344354E-2],"categories":[],"categories_nodes":[],"categories_segments":[],"categories_sizes":[],"default_left":[0,0,0,0,0,0,0,0,0,0,0,0,0,0,0],"id":28,"left_children":[1,3,5,7,-1,9,-1,-1,-1,-1,11,-1,13,-1,-1],"loss_changes":[2.2030283E1,5.140259E0,6.812523E0,1.0396041E0,0E0,3.8964262E0,0E0,0E0,0E0,0E0,5.6777763E-1,0E0,1.7445539E0,0E0,0E0],"parents":[2147483647,0,0,1,1,2,2,3,3,5,5,10,10,12,12],"right_children":[2,4,6,8,-1,10,-1,-1,-1,-1,12,-1,14,-1,-1],"split_conditions":[1E0,1E0,1E0,1E0,2.262969E-2,1E0,9.718698E-3,-4.0399004E-3,7.18054E-3,1.5389975E-3,1E0,-2.0664014E-2,1E0,4.426264E-3,-1.2344354E-2],"split_indices":[20,9,2,1,0,15,0,0,0,0,3,0,12,0,0],"split_type":[0,0,0,0,0,0,0,0,0,0,0,0,0,0,0],"sum_hessian":[4.376375E1,1.9141188E1,2.462256E1,7.161986E0,1.1979201E1,2.1469833E1,3.1527264E0,4.182736E0,2.9792502E0,3.8874419E0,1.7582392E1,1.3332978E1,4.2494144E0,2.1547277E0,2.094687E0],"tree_param":{"num_deleted":"0","num_feature":"23","num_nodes":"15","size_leaf_vector":"1"}},{"base_weights":[1.2217884E-1,-5.6708425E-1,9.730223E-1,-7.753634E-1,6.4698104E-3,2.5937125E-2,1.4399217E-1,-1.5470558E-1,-9.4857043E-1,8.488069E-3,-4.1655595E-3,1.6170732E-3,-6.7640403E-3,-3.815764E-3,-2.0327127E-2],"categories":[],"categories_nodes":[],"categories_segments":[],"categories_sizes":[],"default_left":[0,0,0,0,0,0,0,0,0,0,0,0,0,0,0],"id":29,"left_children":[1,3,5,7,-1,-1,9,11,13,-1,-1,-1,-1,-1,-1],"loss_changes":[3.019706E1,6.1433783E0,5.3139343E0,1.9433317E0,0E0,0E0,1.2957914E0,5.277964E-1,1.0673523E-1,0E0,0E0,0E0,0E0,0E0,0E0],"parents":[2147483647,0,0,1,1,2,2,3,3,6,6,7,7,8,8],"right_children":[2,4,6,8,-1,-1,10,12,14,-1,-1,-1,-1,-1,-1],"split_conditions":[1E0,1E0,1E0,1E0,6.4698104E-3,2.5937125E-2,1E0,1E0,1E0,8.488069E-3,-4.1655595E-3,1.6170732E-3,-6.7640403E-3,-3.815764E-3,-2.0327127E-2],"split_indices":[3,2,17,20,0,0,20,12,15,0,0,0,0,0,0],"split_type":[0,0,0,0,0,0,0,0,0,0,0,0,0,0,0],"sum_hessian":[4.552975E1,2.5576132E1,1.9953619E1,2.1224924E1,4.351207E0,1.2957877E1,6.9957423E0,6.1220036E0,1.51029215E1,3.8692322E0,3.1265101E0,2.9382594E0,3.1837444E0,2.4219532E0,1.2680968E1],"tree_param":{"num_deleted":"0","num_feature":"23","num_nodes":"15","size_leaf_vector":"1"}},{"base_weights":[-3.6592796E-2,-4.4486666E-1,8.593056E-1,-6.502627E-1,2.6786178E-1,3.8649857E-3,1.9838953E-2,-2.3608308E-1,-1.6355582E-2,9.7865015E-3,-1.7958734E-3,-6.0175625E-3,-0E0],"categories":[],"categories_nodes":[],"categories_segments":[],"categories_sizes":[],"default_left":[0,0,0,0,0,0,0,0,0,0,0,0,0],"id":30,"left_children":[1,3,5,7,9,-1,-1,11,-1,-1,-1,-1,-1],"loss_changes":[1.6770416E1,5.229095E0,4.5236015E-1,9.893694E-1,9.232032E-1,0E0,0E0,2.1970046E-1,0E0,0E0,0E0,0E0,0E0],"parents":[2147483647,0,0,1,1,2,2,3,3,4,4,7,7],"right_children":[2,4,6,8,10,-1,-1,12,-1,-1,-1,-1,-1],"split_conditions":[1E0,1E0,1E0,1E0,1E0,3.8649857E-3,1.9838953E-2,1E0,-1.6355582E-2,9.7865015E-3,-1.7958734E-3,-6.0175625E-3,-0E0],"split_indices":[2,0,18,17,17,0,0,16,0,0,0,0,0],"split_type":[0,0,0,0,0,0,0,0,0,0,0,0,0],"sum_hessian":[3.9940628E1,2.8627996E1,1.1312631E1,2.2645496E1,5.9825E0,3.3532116E0,7.959419E0,8.946753E0,1.3698744E1,3.3579726E0,2.6245272E0,6.7821527E0,2.1646001E0],"tree_param":{"num_deleted":"0","num_feature":"23","num_nodes":"13","size_leaf_vector":"1"}},{"base_weights":[-5.4964736E-2,-5.42495E-1,7.1153396E-1,2.7514687E-1,-8.599857E-1,-0E0,8.9113885E-1,-3.8825693E-3,1.2965279E-2,-1.8530976E-2,-4.384643E-3,4.1671395E-3,2.0464802E-2],"categories":[],"categories_nodes":[],"categories_segments":[],"categories_sizes":[],"default_left":[0,0,0,0,0,0,0,0,0,0,0,0,0],"id":31,"left_children":[1,3,5,7,9,-1,11,-1,-1,-1,-1,-1,-1],"loss_changes":[1.7863506E1,8.417706E0,2.4616375E0,2.267514E0,9.832001E-2,0E0,4.6053123E-1,0E0,0E0,0E0,0E0,0E0,0E0],"parents":[2147483647,0,0,1,1,2,2,3,3,4,4,6,6],"right_children":[2,4,6,8,10,-1,12,-1,-1,-1,-1,-1,-1],"split_conditions":[1E0,1E0,1E0,1E0,1E0,-0E0,1E0,-3.8825693E-3,1.2965279E-2,-1.8530976E-2,-4.384643E-3,4.1671395E-3,2.0464802E-2],"split_indices":[3,15,5,22,0,0,9,0,0,0,0,0,0],"split_type":[0,0,0,0,0,0,0,0,0,0,0,0,0],"sum_hessian":[4.1794464E1,2.624135E1,1.5553115E1,7.2752876E0,1.8966063E1,3.6251526E0,1.1927962E1,3.6224208E0,3.652867E0,1.568631E1,3.2797532E0,3.4324846E0,8.495478E0],"tree_param":{"num_deleted":"0","num_feature":"23","num_nodes":"13","size_leaf_vector":"1"}},{"base_weights":[1.5135689E-1,-4.2148098E-1,9.219003E-1,-6.4537287E-1,1.0995439E-2,1.0305252E0,2.626185E-1,-0E0,-1.8280394E-2,2.222329E-2,4.2726323E-3,-2.1868476E-3,1.0364102E-2,-6.8517695E-3,8.541743E-3],"categories":[],"categories_nodes":[],"categories_segments":[],"categories_sizes":[],"default_left":[0,0,0,0,0,0,0,0,0,0,0,0,0,0,0],"id":32,"left_children":[1,3,5,7,-1,9,11,13,-1,-1,-1,-1,-1,-1,-1],"loss_changes":[2.203318E1,7.3672886E0,4.443016E-1,4.3333607E0,0E0,1.3445854E-1,9.437208E-1,1.9548558E0,0E0,0E0,0E0,0E0,0E0,0E0,0E0],"parents":[2147483647,0,0,1,1,2,2,3,3,5,5,6,6,7,7],"right_children":[2,4,6,8,-1,10,12,14,-1,-1,-1,-1,-1,-1,-1],"split_conditions":[1E0,1E0,1E0,1E0,1.0995439E-2,1E0,1E0,1E0,-1.8280394E-2,2.222329E-2,4.2726323E-3,-2.1868476E-3,1.0364102E-2,-6.8517695E-3,8.541743E-3],"split_indices":[3,2,4,20,0,8,2,1,0,0,0,0,0,0,0],"split_type":[0,0,0,0,0,0,0,0,0,0,0,0,0,0,0],"sum_hessian":[4.4049328E1,2.5896675E1,1.8152655E1,2.2030687E1,3.8659873E0,1.3874061E1,4.2785945E0,7.364626E0,1.466606E1,1.1421105E1,2.4529548E0,2.1230009E0,2.1555934E0,4.4250207E0,2.9396052E0],"tree_param":{"num_deleted":"0","num_feature":"23","num_nodes":"15","size_leaf_vector":"1"}},{"base_weights":[-7.2449134E-3,-5.2562714E-1,8.2054406E-1,-1.7377984E-2,2.0577472E-1,2.0160086E-2,1.1944841E-1,-3.2378798E-3,1.1191921E-2,-3.0626724E-3,6.959184E-3],"categories":[],"categories_nodes":[],"categories_segments":[],"categories_sizes":[],"default_left":[0,0,0,0,0,0,0,0,0,0,0],"id":33,"left_children":[1,3,5,-1,7,-1,9,-1,-1,-1,-1],"loss_changes":[2.1174273E1,8.339327E0,1.8993979E0,0E0,1.9121214E0,0E0,6.7339885E-1,0E0,0E0,0E0,0E0],"parents":[2147483647,0,0,1,1,2,2,4,4,6,6],"right_children":[2,4,6,-1,8,-1,10,-1,-1,-1,-1],"split_conditions":[1E0,1E0,1E0,-1.7377984E-2,1E0,2.0160086E-2,1E0,-3.2378798E-3,1.1191921E-2,-3.0626724E-3,6.959184E-3],"split_indices":[16,22,20,0,3,0,18,0,0,0,0],"split_type":[0,0,0,0,0,0,0,0,0,0,0],"sum_hessian":[4.346665E1,2.7550507E1,1.5916142E1,1.8552605E1,8.997902E0,1.1296996E1,4.619146E0,4.9334455E0,4.064457E0,2.1585946E0,2.4605513E0],"tree_param":{"num_deleted":"0","num_feature":"23","num_nodes":"11","size_leaf_vector":"1"}},{"base_weights":[-2.4359833E-2,-5.867303E-1,7.1281374E-1,-1.7730592E-2,1.395967E-1,1.9475626E-2,1.6137992E-1,6.5362644E-3,-7.7517517E-4,-5.342115E-3,1.008332E-2],"categories":[],"categories_nodes":[],"categories_segments":[],"categories_sizes":[],"default_left":[0,0,0,0,0,0,0,0,0,0,0],"id":34,"left_children":[1,3,5,-1,7,-1,9,-1,-1,-1,-1],"loss_changes":[1.9763134E1,6.4346666E0,2.2583647E0,0E0,4.4060826E-1,0E0,1.9851813E0,0E0,0E0,0E0,0E0],"parents":[2147483647,0,0,1,1,2,2,4,4,6,6],"right_children":[2,4,6,-1,8,-1,10,-1,-1,-1,-1],"split_conditions":[1E0,1E0,1E0,-1.7730592E-2,1E0,1.9475626E-2,1E0,6.5362644E-3,-7.7517517E-4,-5.342115E-3,1.008332E-2],"split_indices":[3,22,20,0,15,0,14,0,0,0,0],"split_type":[0,0,0,0,0,0,0,0,0,0,0],"sum_hessian":[4.170633E1,2.4159344E1,1.7546984E1,1.6827341E1,7.3320036E0,1.0104557E1,7.4424257E0,2.9059384E0,4.426065E0,3.342792E0,4.099634E0],"tree_param":{"num_deleted":"0","num_feature":"23","num_nodes":"11","size_leaf_vector":"1"}},{"base_weights":[-2.2245187E-2,-5.1002586E-1,6.1251974E-1,1.011241E-2,-8.1596595E-1,-2.1624476E-2,2.0979391E-2,-1.8058779E-2,-3.279206E-3,-9.362248E-3,3.5967568E-1,9.585563E-3,-0E0],"categories":[],"categories_nodes":[],"categories_segments":[],"categories_sizes":[],"default_left":[0,0,0,0,0,0,0,0,0,0,0,0,0],"id":35,"left_children":[1,3,5,-1,7,9,-1,-1,-1,-1,11,-1,-1],"loss_changes":[1.4939306E1,9.821325E0,6.048168E0,0E0,6.1129856E-1,2.4434803E0,0E0,0E0,0E0,0E0,2.6632547E-1,0E0,0E0],"parents":[2147483647,0,0,1,1,2,2,4,4,5,5,10,10],"right_children":[2,4,6,-1,8,10,-1,-1,-1,-1,12,-1,-1],"split_conditions":[1E0,1E0,1E0,1.011241E-2,1E0,1E0,2.0979391E-2,-1.8058779E-2,-3.279206E-3,-9.362248E-3,1E0,9.585563E-3,-0E0],"split_indices":[3,15,18,0,0,5,0,0,0,0,12,0,0],"split_type":[0,0,0,0,0,0,0,0,0,0,0,0,0],"sum_hessian":[4.228883E1,2.442456E1,1.786427E1,5.0495453E0,1.9375015E1,8.258344E0,9.605926E0,1.5805353E1,3.569662E0,3.7309926E0,4.5273514E0,2.398662E0,2.1286893E0],"tree_param":{"num_deleted":"0","num_feature":"23","num_nodes":"13","size_leaf_vector":"1"}},{"base_weights":[2.891211E-2,-5.3361696E-1,7.6807415E-1,4.491399E-2,-1.6717134E-2,1.8811762E-2,-4.1669048E-4,-6.9200066E-3,1.1406653E-2],"categories":[],"categories_nodes":[],"categories_segments":[],"categories_sizes":[],"default_left":[0,0,0,0,0,0,0,0,0],"id":36,"left_children":[1,3,5,7,-1,-1,-1,-1,-1],"loss_changes":[1.9646908E1,4.940242E0,3.0295305E0,3.0571737E0,0E0,0E0,0E0,0E0,0E0],"parents":[2147483647,0,0,1,1,2,2,3,3],"right_children":[2,4,6,8,-1,-1,-1,-1,-1],"split_conditions":[1E0,1E0,1E0,1E0,-1.6717134E-2,1.8811762E-2,-4.1669048E-4,-6.9200066E-3,1.1406653E-2],"split_indices":[3,20,8,16,0,0,0,0,0],"split_type":[0,0,0,0,0,0,0,0,0],"sum_hessian":[4.1180946E1,2.370457E1,1.7476376E1,8.783717E0,1.4920854E1,1.4075212E1,3.401165E0,5.4056587E0,3.378058E0],"tree_param":{"num_deleted":"0","num_feature":"23","num_nodes":"9","size_leaf_vector":"1"}},{"base_weights":[7.360272E-2,-6.822079E-1,7.331317E-1,-1.8753672E-2,-0E0,1.4632913E-1,2.0815842E-2,-7.921762E-3,8.401459E-3,-6.356927E-3,1.5304916E-2],"categories":[],"categories_nodes":[],"categories_segments":[],"categories_sizes":[],"default_left":[0,0,0,0,0,0,0,0,0,0,0],"id":37,"left_children":[1,3,5,-1,7,9,-1,-1,-1,-1,-1],"loss_changes":[2.3765581E1,3.7065325E0,3.8964853E0,0E0,2.0325692E0,4.3990088E0,0E0,0E0,0E0,0E0,0E0],"parents":[2147483647,0,0,1,1,2,2,4,4,5,5],"right_children":[2,4,6,-1,8,10,-1,-1,-1,-1,-1],"split_conditions":[1E0,1E0,1E0,-1.8753672E-2,1E0,1E0,2.0815842E-2,-7.921762E-3,8.401459E-3,-6.356927E-3,1.5304916E-2],"split_indices":[9,3,22,0,18,3,0,0,0,0,0],"split_type":[0,0,0,0,0,0,0,0,0,0,0],"sum_hessian":[4.164572E1,1.9216959E1,2.2428762E1,1.2975507E1,6.241452E0,9.460886E0,1.2967876E1,3.5169933E0,2.724459E0,6.0555425E0,3.405343E0],"tree_param":{"num_deleted":"0","num_feature":"23","num_nodes":"11","size_leaf_vector":"1"}},{"base_weights":[7.290349E-2,6.932753E-1,-4.8309535E-1,1.0070027E-1,2.2089507E-2,-1.6125312E-2,7.617164E-2,-8.610691E-3,4.946326E-1,-2.9071277E-1,1.0592396E-2,1.2899098E-2,1.5797701E-3,-9.564299E-3,-0E0],"categories":[],"categories_nodes":[],"categories_segments":[],"categories_sizes":[],"default_left":[0,0,0,0,0,0,0,0,0,0,0,0,0,0,0],"id":38,"left_children":[1,3,5,7,-1,-1,9,-1,11,13,-1,-1,-1,-1,-1],"loss_changes":[1.6937569E1,5.0726585E0,5.0102253E0,3.3710694E0,0E0,0E0,2.5055833E0,0E0,2.6931477E-1,5.1240474E-1,0E0,0E0,0E0,0E0,0E0],"parents":[2147483647,0,0,1,1,2,2,3,3,6,6,8,8,9,9],"right_children":[2,4,6,8,-1,-1,10,-1,12,14,-1,-1,-1,-1,-1],"split_conditions":[1E0,1E0,1E0,1E0,2.2089507E-2,-1.6125312E-2,1E0,-8.610691E-3,1E0,1E0,1.0592396E-2,1.2899098E-2,1.5797701E-3,-9.564299E-3,-0E0],"split_indices":[20,3,9,9,0,0,3,0,12,4,0,0,0,0,0],"split_type":[0,0,0,0,0,0,0,0,0,0,0,0,0,0,0],"sum_hessian":[4.307011E1,2.017655E1,2.2893559E1,9.994569E0,1.0181982E1,1.3896303E1,8.997256E0,3.9207807E0,6.0737886E0,5.324664E0,3.672592E0,2.8916943E0,3.182094E0,2.3170538E0,3.0076103E0],"tree_param":{"num_deleted":"0","num_feature":"23","num_nodes":"15","size_leaf_vector":"1"}},{"base_weights":[1.15039416E-1,6.5749836E-1,-5.3677154E-1,7.4574985E-2,1.8374808E-2,-1.6264213E-2,5.336997E-2,-1.4240283E-1,7.1860175E-3,7.836137E-3,-4.852295E-3,5.8267004E-4,-5.463025E-3],"categories":[],"categories_nodes":[],"categories_segments":[],"categories_sizes":[],"default_left":[0,0,0,0,0,0,0,0,0,0,0,0,0],"id":39,"left_children":[1,3,5,7,-1,-1,9,11,-1,-1,-1,-1,-1],"loss_changes":[1.5345722E1,3.1792908E0,3.5133672E0,8.631179E-1,0E0,0E0,1.206817E0,2.4918838E-1,0E0,0E0,0E0,0E0,0E0],"parents":[2147483647,0,0,1,1,2,2,3,3,6,6,7,7],"right_children":[2,4,6,8,-1,-1,10,12,-1,-1,-1,-1,-1],"split_conditions":[1E0,1E0,1E0,1E0,1.8374808E-2,-1.6264213E-2,1E0,1E0,7.1860175E-3,7.836137E-3,-4.852295E-3,5.8267004E-4,-5.463025E-3],"split_indices":[17,9,9,1,0,0,20,20,0,0,0,0,0],"split_type":[0,0,0,0,0,0,0,0,0,0,0,0,0],"sum_hessian":[3.733817E1,2.0531677E1,1.680649E1,7.7842426E0,1.2747436E1,1.0903773E1,5.902717E0,4.870095E0,2.9141479E0,2.6160011E0,3.286716E0,2.4533224E0,2.4167724E0],"tree_param":{"num_deleted":"0","num_feature":"23","num_nodes":"13","size_leaf_vector":"1"}},{"base_weights":[-2.0327E-2,5.8297116E-1,-5.3730273E-1,2.1160243E-2,1.9606223E-2,-7.066149E-1,5.922856E-3,1.1029674E-2,-7.084085E-3,-0E0,-1.6677342E-2],"categories":[],"categories_nodes":[],"categories_segments":[],"categories_sizes":[],"default_left":[0,0,0,0,0,0,0,0,0,0,0],"id":40,"left_children":[1,3,5,7,-1,9,-1,-1,-1,-1,-1],"loss_changes":[1.4265542E1,4.423236E0,4.204463E0,3.0083468E0,0E0,1.9319267E0,0E0,0E0,0E0,0E0,0E0],"parents":[2147483647,0,0,1,1,2,2,3,3,5,5],"right_children":[2,4,6,8,-1,10,-1,-1,-1,-1,-1],"split_conditions":[1E0,1E0,1E0,1E0,1.9606223E-2,1E0,5.922856E-3,1.1029674E-2,-7.084085E-3,-0E0,-1.6677342E-2],"split_indices":[20,3,2,15,0,15,0,0,0,0,0],"split_type":[0,0,0,0,0,0,0,0,0,0,0],"sum_hessian":[3.9755325E1,1.7990738E1,2.176459E1,8.970372E0,9.020365E0,1.866861E1,3.0959806E0,3.3552418E0,5.615131E0,3.3304381E0,1.5338171E1],"tree_param":{"num_deleted":"0","num_feature":"23","num_nodes":"11","size_leaf_vector":"1"}},{"base_weights":[7.113378E-2,6.012007E-1,-5.4449266E-1,6.9883657E-1,-2.9361069E-3,9.715557E-3,-1.4825751E-2,1.9220423E-2,5.5433856E-3,-8.334683E-3,9.738435E-3,-4.7795717E-3,6.9094794E-3],"categories":[],"categories_nodes":[],"categories_segments":[],"categories_sizes":[],"default_left":[0,0,0,0,0,0,0,0,0,0,0,0,0],"id":41,"left_children":[1,3,5,7,-1,9,-1,-1,11,-1,-1,-1,-1],"loss_changes":[1.5551901E1,2.2858438E0,2.5717978E0,4.040103E0,0E0,2.34657E0,0E0,0E0,1.0703982E0,0E0,0E0,0E0,0E0],"parents":[2147483647,0,0,1,1,2,2,3,3,5,5,8,8],"right_children":[2,4,6,8,-1,10,-1,-1,12,-1,-1,-1,-1],"split_conditions":[1E0,1E0,1E0,1E0,-2.9361069E-3,1E0,-1.4825751E-2,1.9220423E-2,1E0,-8.334683E-3,9.738435E-3,-4.7795717E-3,6.9094794E-3],"split_indices":[17,6,20,20,0,1,0,0,2,0,0,0,0],"split_type":[0,0,0,0,0,0,0,0,0,0,0,0,0],"sum_hessian":[4.1613777E1,2.2573072E1,1.9040707E1,2.0377777E1,2.1952956E0,5.470486E0,1.357022E1,1.3736155E1,6.6416225E0,2.868311E0,2.6021752E0,4.0389023E0,2.6027203E0],"tree_param":{"num_deleted":"0","num_feature":"23","num_nodes":"13","size_leaf_vector":"1"}},{"base_weights":[-8.320891E-3,-6.782265E-1,7.2056144E-1,-1.8333836E-1,-1.8302735E-2,2.0847492E-2,1.7362325E-1,6.440685E-2,-1.1680975E-2,-5.5770494E-2,1.0975271E-2,-3.7583995E-3,4.884805E-3,2.3655492E-1,-9.869579E-3,6.41451E-3,9.9584315E-5],"categories":[],"categories_nodes":[],"categories_segments":[],"categories_sizes":[],"default_left":[0,0,0,0,0,0,0,0,0,0,0,0,0,0,0,0,0],"id":42,"left_children":[1,3,5,7,-1,-1,9,11,-1,13,-1,-1,-1,15,-1,-1,-1],"loss_changes":[2.375409E1,2.2646418E0,3.2939005E0,1.4353216E0,0E0,0E0,1.258919E0,6.0175383E-1,0E0,1.6935903E0,0E0,0E0,0E0,8.226246E-2,0E0,0E0,0E0],"parents":[2147483647,0,0,1,1,2,2,3,3,6,6,7,7,9,9,13,13],"right_children":[2,4,6,8,-1,-1,10,12,-1,14,-1,-1,-1,16,-1,-1,-1],"split_conditions":[1E0,1E0,1E0,1E0,-1.8302735E-2,2.0847492E-2,1E0,1E0,-1.1680975E-2,1E0,1.0975271E-2,-3.7583995E-3,4.884805E-3,1E0,-9.869579E-3,6.41451E-3,9.9584315E-5],"split_indices":[9,17,15,4,0,0,0,10,0,4,0,0,0,17,0,0,0],"split_type":[0,0,0,0,0,0,0,0,0,0,0,0,0,0,0,0,0],"sum_hessian":[4.266302E1,2.2482529E1,2.018049E1,9.274533E0,1.3207995E1,1.0763922E1,9.41657E0,6.9786005E0,2.2959328E0,7.0974402E0,2.319129E0,2.3850548E0,4.593546E0,4.808092E0,2.289348E0,2.0459085E0,2.762184E0],"tree_param":{"num_deleted":"0","num_feature":"23","num_nodes":"17","size_leaf_vector":"1"}},{"base_weights":[8.326941E-2,-5.5542034E-1,6.5238154E-1,-1.589958E-2,-3.937403E-2,1.8355593E-2,-0E0,-7.9220375E-3,3.6482066E-3,5.3932476E-3,-5.097105E-3],"categories":[],"categories_nodes":[],"categories_segments":[],"categories_sizes":[],"default_left":[0,0,0,0,0,0,0,0,0,0,0],"id":43,"left_children":[1,3,5,-1,7,-1,9,-1,-1,-1,-1],"loss_changes":[1.5978879E1,2.3024793E0,3.9846535E0,0E0,1.050244E0,0E0,8.758906E-1,0E0,0E0,0E0,0E0],"parents":[2147483647,0,0,1,1,2,2,4,4,6,6],"right_children":[2,4,6,-1,8,-1,10,-1,-1,-1,-1],"split_conditions":[1E0,1E0,1E0,-1.589958E-2,1E0,1.8355593E-2,1E0,-7.9220375E-3,3.6482066E-3,5.3932476E-3,-5.097105E-3],"split_indices":[9,18,17,0,5,0,12,0,0,0,0],"split_type":[0,0,0,0,0,0,0,0,0,0,0],"sum_hessian":[3.7916145E1,1.7734377E1,2.0181767E1,1.0739686E1,6.9946904E0,1.3443703E1,6.7380643E0,2.1233094E0,4.871381E0,3.2495959E0,3.4884682E0],"tree_param":{"num_deleted":"0","num_feature":"23","num_nodes":"11","size_leaf_vector":"1"}},{"base_weights":[-1.5206682E-2,5.958139E-1,-5.4135984E-1,6.9555527E-1,-0E0,-1.9292444E-2,-5.1523052E-2,1.5726302E-2,1.3068174E-3,7.502458E-3,-6.9648805E-3],"categories":[],"categories_nodes":[],"categories_segments":[],"categories_sizes":[],"default_left":[0,0,0,0,0,0,0,0,0,0,0],"id":44,"left_children":[1,3,5,7,-1,-1,9,-1,-1,-1,-1],"loss_changes":[1.3836317E1,1.3016629E0,4.472982E0,6.599474E-1,0E0,0E0,2.181222E0,0E0,0E0,0E0,0E0],"parents":[2147483647,0,0,1,1,2,2,3,3,6,6],"right_children":[2,4,6,8,-1,-1,10,-1,-1,-1,-1],"split_conditions":[1E0,1E0,1E0,1E0,-0E0,-1.9292444E-2,1E0,1.5726302E-2,1.3068174E-3,7.502458E-3,-6.9648805E-3],"split_indices":[20,21,5,8,0,0,17,0,0,0,0],"split_type":[0,0,0,0,0,0,0,0,0,0,0],"sum_hessian":[3.7062035E1,1.6788397E1,2.0273636E1,1.4210579E1,2.577818E0,9.096949E0,1.1176687E1,1.1494737E1,2.7158427E0,3.9829743E0,7.193713E0],"tree_param":{"num_deleted":"0","num_feature":"23","num_nodes":"11","size_leaf_vector":"1"}},{"base_weights":[1.0584381E-1,-2.6789176E-1,1.6204001E-2,4.5755196E-2,-1.3582934E-2,-2.4866678E-1,4.182749E-1,-8.159974E-3,-0E0,1.172442E-3,1.172628E-2],"categories":[],"categories_nodes":[],"categories_segments":[],"categories_sizes":[],"default_left":[0,0,0,0,0,0,0,0,0,0,0],"id":45,"left_children":[1,3,-1,5,-1,7,9,-1,-1,-1,-1],"loss_changes":[1.1162749E1,3.8171875E0,0E0,2.3592582E0,0E0,4.2125964E-1,3.433634E-1,0E0,0E0,0E0,0E0],"parents":[2147483647,0,0,1,1,3,3,5,5,6,6],"right_children":[2,4,-1,6,-1,8,10,-1,-1,-1,-1],"split_conditions":[1E0,1E0,1.6204001E-2,1E0,-1.3582934E-2,1E0,1E0,-8.159974E-3,-0E0,1.172442E-3,1.172628E-2],"split_indices":[16,4,0,1,0,12,18,0,0,0,0],"split_type":[0,0,0,0,0,0,0,0,0,0,0],"sum_hessian":[3.651919E1,2.488834E1,1.1630854E1,1.5356495E1,9.531845E0,8.834589E0,6.5219054E0,3.926788E0,4.907801E0,3.7444553E0,2.77745E0],"tree_param":{"num_deleted":"0","num_feature":"23","num_nodes":"11","size_leaf_vector":"1"}},{"base_weights":[-3.341509E-4,-5.312219E-1,5.0615686E-1,4.655717E-2,-1.5405574E-2,8.939999E-2,1.7111132E-2,-7.2829113E-3,7.4996366E-3,-2.5671852E-1,4.5446217E-1,1.3532749E-4,-8.406907E-3,1.3008882E-2,-1.6845913E-4],"categories":[],"categories_nodes":[],"categories_segments":[],"categories_sizes":[],"default_left":[0,0,0,0,0,0,0,0,0,0,0,0,0,0,0],"id":46,"left_children":[1,3,5,7,-1,9,-1,-1,-1,11,13,-1,-1,-1,-1],"loss_changes":[1.26643915E1,3.4537687E0,3.062018E0,1.6753565E0,0E0,2.2231376E0,0E0,0E0,0E0,4.8292392E-1,9.0927446E-1,0E0,0E0,0E0,0E0],"parents":[2147483647,0,0,1,1,2,2,3,3,5,5,9,9,10,10],"right_children":[2,4,6,8,-1,10,-1,-1,-1,12,14,-1,-1,-1,-1],"split_conditions":[1E0,1E0,1E0,1E0,-1.5405574E-2,1E0,1.7111132E-2,-7.2829113E-3,7.4996366E-3,1E0,1E0,1.3532749E-4,-8.406907E-3,1.3008882E-2,-1.6845913E-4],"split_indices":[9,20,3,18,0,22,0,0,0,15,12,0,0,0,0],"split_type":[0,0,0,0,0,0,0,0,0,0,0,0,0,0,0],"sum_hessian":[4.108025E1,2.0178343E1,2.0901907E1,6.3675804E0,1.3810762E1,1.1511381E1,9.390527E0,2.4138026E0,3.9537778E0,6.084812E0,5.426569E0,2.9646115E0,3.1202009E0,3.2619643E0,2.1646047E0],"tree_param":{"num_deleted":"0","num_feature":"23","num_nodes":"15","size_leaf_vector":"1"}},{"base_weights":[-3.5322886E-2,-5.281108E-1,6.789798E-1,-7.573652E-1,5.151893E-2,1.7651036E-2,-2.4520871E-3,-1.6366584E-2,-2.5098117E-3,9.721657E-3,-5.9602708E-3],"categories":[],"categories_nodes":[],"categories_segments":[],"categories_sizes":[],"default_left":[0,0,0,0,0,0,0,0,0,0,0],"id":47,"left_children":[1,3,5,7,9,-1,-1,-1,-1,-1,-1],"loss_changes":[1.650072E1,3.957046E0,3.5886955E0,2.8840065E-1,2.0596E0,0E0,0E0,0E0,0E0,0E0,0E0],"parents":[2147483647,0,0,1,1,2,2,3,3,4,4],"right_children":[2,4,6,8,10,-1,-1,-1,-1,-1,-1],"split_conditions":[1E0,1E0,1E0,1E0,1E0,1.7651036E-2,-2.4520871E-3,-1.6366584E-2,-2.5098117E-3,9.721657E-3,-5.9602708E-3],"split_indices":[3,22,8,2,15,0,0,0,0,0,0],"split_type":[0,0,0,0,0,0,0,0,0,0,0],"sum_hessian":[4.090675E1,2.4835236E1,1.6071516E1,1.7384483E1,7.4507513E0,1.2773905E1,3.2976108E0,1.4758777E1,2.6257062E0,3.0539973E0,4.3967543E0],"tree_param":{"num_deleted":"0","num_feature":"23","num_nodes":"11","size_leaf_vector":"1"}},{"base_weights":[-1.5389602E-2,-6.475109E-1,6.474815E-1,-5.502897E-2,-1.9382719E-2,1.8876888E-2,1.1960123E-1,5.6975577E-3,-3.0532146E-1,8.416387E-3,-2.145094E-1,-0E0,-8.36278E-3,4.4893738E-4,-7.218928E-3],"categories":[],"categories_nodes":[],"categories_segments":[],"categories_sizes":[],"default_left":[0,0,0,0,0,0,0,0,0,0,0,0,0,0,0],"id":48,"left_children":[1,3,5,7,-1,-1,9,-1,11,-1,13,-1,-1,-1,-1],"loss_changes":[1.9937588E1,4.2988434E0,3.063528E0,1.2868276E0,0E0,0E0,1.5183512E0,0E0,2.7892643E-1,0E0,3.4722057E-1,0E0,0E0,0E0,0E0],"parents":[2147483647,0,0,1,1,2,2,3,3,6,6,8,8,10,10],"right_children":[2,4,6,8,-1,-1,10,-1,12,-1,14,-1,-1,-1,-1],"split_conditions":[1E0,1E0,1E0,1E0,-1.9382719E-2,1.8876888E-2,1E0,5.6975577E-3,1E0,8.416387E-3,1E0,-0E0,-8.36278E-3,4.4893738E-4,-7.218928E-3],"split_indices":[9,17,15,8,0,0,12,0,20,0,17,0,0,0,0],"split_type":[0,0,0,0,0,0,0,0,0,0,0,0,0,0,0],"sum_hessian":[4.158034E1,2.1473862E1,2.0106478E1,9.010428E0,1.2463433E1,1.112041E1,8.986069E0,3.3064864E0,5.7039423E0,4.6310115E0,4.3550572E0,2.467861E0,3.2360814E0,2.1119618E0,2.2430954E0],"tree_param":{"num_deleted":"0","num_feature":"23","num_nodes":"15","size_leaf_vector":"1"}},{"base_weights":[1.2065253E-2,-4.4641182E-1,6.907344E-1,-7.695723E-1,2.3978765E-1,1.6157888E-2,1.5502942E-3,-1.7088069E-2,-2.8948071E-3,-3.679664E-3,1.0578864E-2],"categories":[],"categories_nodes":[],"categories_segments":[],"categories_sizes":[],"default_left":[0,0,0,0,0,0,0,0,0,0,0],"id":49,"left_children":[1,3,5,7,9,-1,-1,-1,-1,-1,-1],"loss_changes":[1.4786503E1,6.8996763E0,1.0181618E0,4.914713E-1,1.7209136E0,0E0,0E0,0E0,0E0,0E0,0E0],"parents":[2147483647,0,0,1,1,2,2,3,3,4,4],"right_children":[2,4,6,8,10,-1,-1,-1,-1,-1,-1],"split_conditions":[1E0,1E0,1E0,1E0,1E0,1.6157888E-2,1.5502942E-3,-1.7088069E-2,-2.8948071E-3,-3.679664E-3,1.0578864E-2],"split_indices":[22,3,8,0,5,0,0,0,0,0,0],"split_type":[0,0,0,0,0,0,0,0,0,0,0],"sum_hessian":[4.139143E1,2.5140001E1,1.6251427E1,1.704143E1,8.098572E0,1.2571093E1,3.6803353E0,1.3752039E1,3.289391E0,3.4467294E0,4.651842E0],"tree_param":{"num_deleted":"0","num_feature":"23","num_nodes":"11","size_leaf_vector":"1"}},{"base_weights":[-1.0947021E-1,-7.056091E-1,4.9425748E-1,-9.1933765E-2,-1.835534E-2,7.684669E-1,-6.217137E-2,-4.2744265E-3,6.272552E-4,2.058053E-2,3.0366082E-3,-8.996317E-3,5.32513E-3],"categories":[],"categories_nodes":[],"categories_segments":[],"categories_sizes":[],"default_left":[0,0,0,0,0,0,0,0,0,0,0,0,0],"id":50,"left_children":[1,3,5,7,-1,9,11,-1,-1,-1,-1,-1,-1],"loss_changes":[1.6163347E1,2.4714422E0,3.7035298E0,1.969903E-1,0E0,1.7816372E0,1.6604767E0,0E0,0E0,0E0,0E0,0E0,0E0],"parents":[2147483647,0,0,1,1,2,2,3,3,5,5,6,6],"right_children":[2,4,6,8,-1,10,12,-1,-1,-1,-1,-1,-1],"split_conditions":[1E0,1E0,1E0,1E0,-1.835534E-2,1E0,1E0,-4.2744265E-3,6.272552E-4,2.058053E-2,3.0366082E-3,-8.996317E-3,5.32513E-3],"split_indices":[9,20,20,8,0,12,5,0,0,0,0,0,0],"split_type":[0,0,0,0,0,0,0,0,0,0,0,0,0],"sum_hessian":[3.8885487E1,1.9477667E1,1.940782E1,6.350697E0,1.312697E1,1.2475896E1,6.9319243E0,2.904083E0,3.4466138E0,7.1317267E0,5.3441687E0,2.9500835E0,3.9818408E0],"tree_param":{"num_deleted":"0","num_feature":"23","num_nodes":"13","size_leaf_vector":"1"}},{"base_weights":[-3.1789217E-2,-4.5131016E-1,4.4018385E-1,-6.0795325E-1,5.9453556E-3,1.8510969E-1,1.5171687E-2,-1.45667065E-2,-1.8915531E-1,4.401902E-1,-9.353319E-2,-8.267703E-3,2.900857E-3,1.253437E-2,-1.2577152E-3,-5.91052E-3,2.870893E-3],"categories":[],"categories_nodes":[],"categories_segments":[],"categories_sizes":[],"default_left":[0,0,0,0,0,0,0,0,0,0,0,0,0,0,0,0,0],"id":51,"left_children":[1,3,5,7,-1,9,-1,-1,11,13,15,-1,-1,-1,-1,-1,-1],"loss_changes":[9.35184E0,3.54882E0,1.1847563E0,5.1092434E-1,0E0,1.371762E0,0E0,0E0,9.3263495E-1,1.1280806E0,6.3781846E-1,0E0,0E0,0E0,0E0,0E0,0E0],"parents":[2147483647,0,0,1,1,2,2,3,3,5,5,8,8,9,9,10,10],"right_children":[2,4,6,8,-1,10,-1,-1,12,14,16,-1,-1,-1,-1,-1,-1],"split_conditions":[1E0,1E0,1E0,1E0,5.9453556E-3,1E0,1.5171687E-2,-1.45667065E-2,1E0,1E0,1E0,-8.267703E-3,2.900857E-3,1.253437E-2,-1.2577152E-3,-5.91052E-3,2.870893E-3],"split_indices":[9,2,2,18,0,12,0,0,1,4,18,0,0,0,0,0,0],"split_type":[0,0,0,0,0,0,0,0,0,0,0,0,0,0,0,0,0],"sum_hessian":[4.1209705E1,2.211104E1,1.9098665E1,1.8971844E1,3.1391969E0,1.3586574E1,5.512092E0,1.2642821E1,6.3290215E0,6.5598774E0,7.026696E0,3.7204196E0,2.608602E0,4.5376587E0,2.022219E0,3.8502448E0,3.1764512E0],"tree_param":{"num_deleted":"0","num_feature":"23","num_nodes":"17","size_leaf_vector":"1"}},{"base_weights":[1.489232E-1,-3.5840815E-1,5.8088356E-1,-1.3298985E-2,1.6646387E-1,1.4943296E-1,1.6310649E-2,-6.7844745E-3,1.0019533E-2,3.713823E-1,-4.513963E-3,-3.3424154E-4,1.17160985E-2],"categories":[],"categories_nodes":[],"categories_segments":[],"categories_sizes":[],"default_left":[0,0,0,0,0,0,0,0,0,0,0,0,0],"id":52,"left_children":[1,3,5,-1,7,9,-1,-1,-1,11,-1,-1,-1],"loss_changes":[9.428621E0,3.6535602E0,1.764533E0,0E0,2.1562438E0,1.2844517E0,0E0,0E0,0E0,8.9579546E-1,0E0,0E0,0E0],"parents":[2147483647,0,0,1,1,2,2,4,4,5,5,9,9],"right_children":[2,4,6,-1,8,10,-1,-1,-1,12,-1,-1,-1],"split_conditions":[1E0,1E0,1E0,-1.3298985E-2,1E0,1E0,1.6310649E-2,-6.7844745E-3,1.0019533E-2,1E0,-4.513963E-3,-3.3424154E-4,1.17160985E-2],"split_indices":[9,18,1,0,8,17,0,0,0,22,0,0,0],"split_type":[0,0,0,0,0,0,0,0,0,0,0,0,0],"sum_hessian":[3.6971092E1,1.7024214E1,1.9946878E1,1.0482516E1,6.5416975E0,9.056844E0,1.0890035E1,2.3496165E0,4.192081E0,6.043994E0,3.0128503E0,2.8034077E0,3.240586E0],"tree_param":{"num_deleted":"0","num_feature":"23","num_nodes":"13","size_leaf_vector":"1"}},{"base_weights":[2.6712062E-2,-4.7818652E-1,6.582131E-1,-6.2022907E-1,3.2848686E-3,-2.7861986E-2,2.0854168E-2,-1.5703855E-2,3.7109144E-3,2.4569671E-1,-9.103512E-3,9.622156E-3,-1.9725193E-3],"categories":[],"categories_nodes":[],"categories_segments":[],"categories_sizes":[],"default_left":[0,0,0,0,0,0,0,0,0,0,0,0,0],"id":53,"left_children":[1,3,5,7,-1,9,-1,-1,-1,11,-1,-1,-1],"loss_changes":[1.5467059E1,2.8432999E0,5.994686E0,3.5928173E0,0E0,1.6050116E0,0E0,0E0,0E0,8.726369E-1,0E0,0E0,0E0],"parents":[2147483647,0,0,1,1,2,2,3,3,5,5,9,9],"right_children":[2,4,6,8,-1,10,-1,-1,-1,12,-1,-1,-1],"split_conditions":[1E0,1E0,1E0,1E0,3.2848686E-3,1E0,2.0854168E-2,-1.5703855E-2,3.7109144E-3,1E0,-9.103512E-3,9.622156E-3,-1.9725193E-3],"split_indices":[3,2,9,0,0,4,0,0,0,12,0,0,0],"split_type":[0,0,0,0,0,0,0,0,0,0,0,0,0],"sum_hessian":[4.2435417E1,2.3810244E1,1.8625172E1,1.983883E1,3.9714136E0,7.501788E0,1.11233835E1,1.673713E1,3.1017015E0,5.065783E0,2.4360049E0,2.6458848E0,2.4198985E0],"tree_param":{"num_deleted":"0","num_feature":"23","num_nodes":"13","size_leaf_vector":"1"}},{"base_weights":[1.4886633E-1,-3.100296E-1,6.468016E-1,3.4421885E-3,-5.455795E-1,7.9857177E-1,1.0563898E-3,-1.2520598E-2,-0E0,1.7286696E-2,2.4427688E-3],"categories":[],"categories_nodes":[],"categories_segments":[],"categories_sizes":[],"default_left":[0,0,0,0,0,0,0,0,0,0,0],"id":54,"left_children":[1,3,5,-1,7,9,-1,-1,-1,-1,-1],"loss_changes":[1.0201801E1,3.0286005E0,1.6133986E0,0E0,7.767329E-1,2.1539116E-1,0E0,0E0,0E0,0E0,0E0],"parents":[2147483647,0,0,1,1,2,2,4,4,5,5],"right_children":[2,4,6,-1,8,10,-1,-1,-1,-1,-1],"split_conditions":[1E0,1E0,1E0,3.4421885E-3,1E0,1E0,1.0563898E-3,-1.2520598E-2,-0E0,1.7286696E-2,2.4427688E-3],"split_indices":[18,20,4,0,0,6,0,0,0,0,0],"split_type":[0,0,0,0,0,0,0,0,0,0,0],"sum_hessian":[3.871923E1,2.0529629E1,1.8189604E1,6.7244644E0,1.3805163E1,1.339658E1,4.7930245E0,1.1745366E1,2.059797E0,1.1180583E1,2.2159967E0],"tree_param":{"num_deleted":"0","num_feature":"23","num_nodes":"11","size_leaf_vector":"1"}},{"base_weights":[4.894968E-2,7.0089E-1,-3.6226118E-1,2.8149265E-1,1.6595311E-2,-5.7435304E-1,2.9030794E-1,-0E0,9.251606E-3,-1.4541142E-2,-4.489044E-2,-0E0,8.199651E-3,1.9949598E-3,-3.647022E-3],"categories":[],"categories_nodes":[],"categories_segments":[],"categories_sizes":[],"default_left":[0,0,0,0,0,0,0,0,0,0,0,0,0,0,0],"id":55,"left_children":[1,3,5,7,-1,9,11,-1,-1,-1,13,-1,-1,-1,-1],"loss_changes":[1.2161161E1,2.6117325E-2,4.39218E0,5.1030314E-1,0E0,1.538661E0,3.2441854E-1,0E0,0E0,0E0,2.3907632E-1,0E0,0E0,0E0,0E0],"parents":[2147483647,0,0,1,1,2,2,3,3,5,5,6,6,10,10],"right_children":[2,4,6,8,-1,10,12,-1,-1,-1,14,-1,-1,-1,-1],"split_conditions":[1E0,1E0,1E0,1E0,1.6595311E-2,1E0,1E0,-0E0,9.251606E-3,-1.4541142E-2,1E0,-0E0,8.199651E-3,1.9949598E-3,-3.647022E-3],"split_indices":[15,22,2,3,0,22,3,0,0,0,12,0,0,0,0],"split_type":[0,0,0,0,0,0,0,0,0,0,0,0,0,0,0],"sum_hessian":[3.9269142E1,1.4559416E1,2.4709726E1,6.032502E0,8.526914E0,1.9151382E1,5.5583453E0,3.3029077E0,2.7295947E0,1.370216E1,5.4492216E0,2.3370855E0,3.2212598E0,2.3473723E0,3.1018493E0],"tree_param":{"num_deleted":"0","num_feature":"23","num_nodes":"15","size_leaf_vector":"1"}},{"base_weights":[7.895772E-2,-5.02467E-1,6.03138E-1,-1.2691695E-2,-3.763231E-4,1.6520027E-2,6.85324E-2,-4.3949247E-3,8.068587E-3],"categories":[],"categories_nodes":[],"categories_segments":[],"categories_sizes":[],"default_left":[0,0,0,0,0,0,0,0,0],"id":56,"left_children":[1,3,5,-1,-1,-1,7,-1,-1],"loss_changes":[1.32456455E1,1.1507978E0,2.367321E0,0E0,0E0,0E0,1.2915543E0,0E0,0E0],"parents":[2147483647,0,0,1,1,2,2,6,6],"right_children":[2,4,6,-1,-1,-1,8,-1,-1],"split_conditions":[1E0,1E0,1E0,-1.2691695E-2,-3.763231E-4,1.6520027E-2,1E0,-4.3949247E-3,8.068587E-3],"split_indices":[9,3,20,0,0,0,3,0,0],"split_type":[0,0,0,0,0,0,0,0,0],"sum_hessian":[3.7411736E1,1.7615366E1,1.9796371E1,1.2775714E1,4.8396516E0,1.2553734E1,7.2426367E0,4.1256256E0,3.1170108E0],"tree_param":{"num_deleted":"0","num_feature":"23","num_nodes":"9","size_leaf_vector":"1"}},{"base_weights":[1.4003606E-1,-3.2827622E-1,6.238108E-1,-2.5410011E-2,-1.5282454E-2,7.6576316E-1,1.2306915E-1,-2.998555E-1,7.6925308E-3,2.9962224E-1,1.8243307E-2,-5.0084963E-3,1.1598491E-2,-1.0298486E-2,3.0537385E-3,-4.3217708E-5,8.661672E-3],"categories":[],"categories_nodes":[],"categories_segments":[],"categories_sizes":[],"default_left":[0,0,0,0,0,0,0,0,0,0,0,0,0,0,0,0,0],"id":57,"left_children":[1,3,5,7,-1,9,11,13,-1,15,-1,-1,-1,-1,-1,-1,-1],"loss_changes":[1.1057916E1,3.0899522E0,1.2305489E0,2.371633E0,0E0,1.4223194E-1,2.061202E0,1.5591023E0,0E0,4.519794E-1,0E0,0E0,0E0,0E0,0E0,0E0,0E0],"parents":[2147483647,0,0,1,1,2,2,3,3,5,5,6,6,7,7,9,9],"right_children":[2,4,6,8,-1,10,12,14,-1,16,-1,-1,-1,-1,-1,-1,-1],"split_conditions":[1E0,1E0,1E0,1E0,-1.5282454E-2,1E0,1E0,1E0,7.6925308E-3,1E0,1.8243307E-2,-5.0084963E-3,1.1598491E-2,-1.0298486E-2,3.0537385E-3,-4.3217708E-5,8.661672E-3],"split_indices":[9,4,4,1,0,3,0,3,0,22,0,0,0,0,0,0,0],"split_type":[0,0,0,0,0,0,0,0,0,0,0,0,0,0,0,0,0],"sum_hessian":[4.2835842E1,2.204567E1,2.0790174E1,1.5151082E1,6.8945866E0,1.4649961E1,6.140213E0,9.851304E0,5.2997785E0,6.0124083E0,8.637552E0,3.8832824E0,2.2569304E0,6.696993E0,3.1543112E0,2.2891173E0,3.7232912E0],"tree_param":{"num_deleted":"0","num_feature":"23","num_nodes":"17","size_leaf_vector":"1"}},{"base_weights":[-1.5889393E-3,-4.00857E-1,5.5569375E-1,-0E0,-1.193533E-2,-0E0,1.658937E-2,-6.193055E-3,7.8027193E-3,-5.380169E-3,5.043407E-3],"categories":[],"categories_nodes":[],"categories_segments":[],"categories_sizes":[],"default_left":[0,0,0,0,0,0,0,0,0,0,0],"id":58,"left_children":[1,3,5,7,-1,9,-1,-1,-1,-1,-1],"loss_changes":[9.483568E0,1.8983359E0,2.821846E0,1.7359691E0,0E0,7.912613E-1,0E0,0E0,0E0,0E0,0E0],"parents":[2147483647,0,0,1,1,2,2,3,3,5,5],"right_children":[2,4,6,8,-1,10,-1,-1,-1,-1,-1],"split_conditions":[1E0,1E0,1E0,1E0,-1.193533E-2,1E0,1.658937E-2,-6.193055E-3,7.8027193E-3,-5.380169E-3,5.043407E-3],"split_indices":[22,17,9,1,0,1,0,0,0,0,0],"split_type":[0,0,0,0,0,0,0,0,0,0,0],"sum_hessian":[3.675761E1,2.2114515E1,1.4643093E1,8.452368E0,1.36621475E1,5.623124E0,9.019969E0,5.234351E0,3.2180166E0,2.9423678E0,2.6807566E0],"tree_param":{"num_deleted":"0","num_feature":"23","num_nodes":"11","size_leaf_vector":"1"}},{"base_weights":[7.3307596E-2,7.55395E-1,-4.190527E-1,2.7310798E-1,1.7792253E-2,-6.4933324E-1,1.4890109E-1,-6.6434836E-4,9.473084E-3,-1.6935164E-2,4.5460435E-3,-3.1005824E-3,9.4598E-3],"categories":[],"categories_nodes":[],"categories_segments":[],"categories_sizes":[],"default_left":[0,0,0,0,0,0,0,0,0,0,0,0,0],"id":59,"left_children":[1,3,5,7,-1,9,11,-1,-1,-1,-1,-1,-1],"loss_changes":[1.5416558E1,2.8246117E-1,3.8771458E0,6.781586E-1,0E0,4.124626E0,1.2568848E0,0E0,0E0,0E0,0E0,0E0,0E0],"parents":[2147483647,0,0,1,1,2,2,3,3,5,5,6,6],"right_children":[2,4,6,8,-1,10,12,-1,-1,-1,-1,-1,-1],"split_conditions":[1E0,1E0,1E0,1E0,1.7792253E-2,1E0,1E0,-6.6434836E-4,9.473084E-3,-1.6935164E-2,4.5460435E-3,-3.1005824E-3,9.4598E-3],"split_indices":[20,9,3,1,0,0,9,0,0,0,0,0,0],"split_type":[0,0,0,0,0,0,0,0,0,0,0,0,0],"sum_hessian":[3.987741E1,1.6216091E1,2.3661322E1,5.836879E0,1.0379211E1,1.6780033E1,6.881289E0,2.905174E0,2.931705E0,1.3965326E1,2.8147075E0,4.04021E0,2.841079E0],"tree_param":{"num_deleted":"0","num_feature":"23","num_nodes":"13","size_leaf_vector":"1"}},{"base_weights":[1.3029346E-1,-2.3000723E-1,1.7988062E-2,-6.648559E-1,3.3488274E-1,-1.652911E-2,-1.00604445E-1,1.3084545E-2,-6.472032E-2,3.6503898E-3,-7.0664287E-3,-7.2310567E-3,6.070108E-3],"categories":[],"categories_nodes":[],"categories_segments":[],"categories_sizes":[],"default_left":[0,0,0,0,0,0,0,0,0,0,0,0,0],"id":60,"left_children":[1,3,-1,5,7,-1,9,-1,11,-1,-1,-1,-1],"loss_changes":[1.2146422E1,8.154032E0,0E0,1.2313404E0,2.1506615E0,0E0,7.8282267E-1,0E0,1.3338293E0,0E0,0E0,0E0,0E0],"parents":[2147483647,0,0,1,1,3,3,4,4,6,6,8,8],"right_children":[2,4,-1,6,8,-1,10,-1,12,-1,-1,-1,-1],"split_conditions":[1E0,1E0,1.7988062E-2,1E0,1E0,-1.652911E-2,1E0,1.3084545E-2,1E0,3.6503898E-3,-7.0664287E-3,-7.2310567E-3,6.070108E-3],"split_indices":[2,9,0,3,20,0,8,0,16,0,0,0,0],"split_type":[0,0,0,0,0,0,0,0,0,0,0,0,0],"sum_hessian":[3.810969E1,2.7206976E1,1.0902718E1,1.5273042E1,1.1933933E1,1.0513484E1,4.7595577E0,5.8487763E0,6.085157E0,2.2645032E0,2.4950542E0,3.700022E0,2.385135E0],"tree_param":{"num_deleted":"0","num_feature":"23","num_nodes":"13","size_leaf_vector":"1"}},{"base_weights":[-2.813537E-2,-6.303648E-1,5.7262546E-1,-8.8503316E-2,-1.6532412E-2,1.6921533E-2,3.575448E-2,-7.6235365E-3,5.286513E-3,2.5126913E-3,-6.3193374E-4],"categories":[],"categories_nodes":[],"categories_segments":[],"categories_sizes":[],"default_left":[0,0,0,0,0,0,0,0,0,0,0],"id":61,"left_children":[1,3,5,7,-1,-1,9,-1,-1,-1,-1],"loss_changes":[1.5388066E1,1.8651533E0,2.8428016E0,1.2860295E0,0E0,0E0,9.44468E-2,0E0,0E0,0E0,0E0],"parents":[2147483647,0,0,1,1,2,2,3,3,6,6],"right_children":[2,4,6,8,-1,-1,10,-1,-1,-1,-1],"split_conditions":[1E0,1E0,1E0,1E0,-1.6532412E-2,1.6921533E-2,1E0,-7.6235365E-3,5.286513E-3,2.5126913E-3,-6.3193374E-4],"split_indices":[9,20,20,1,0,0,4,0,0,0,0],"split_type":[0,0,0,0,0,0,0,0,0,0,0],"sum_hessian":[3.650745E1,1.8323868E1,1.8183582E1,6.300411E0,1.2023456E1,1.0655786E1,7.5277967E0,3.621867E0,2.6785445E0,3.3845413E0,4.143255E0],"tree_param":{"num_deleted":"0","num_feature":"23","num_nodes":"11","size_leaf_vector":"1"}},{"base_weights":[5.0018158E-2,5.03715E-1,-5.095091E-1,-0E0,1.4280159E-2,-3.9888153E-4,-5.966628E-1,-3.2943356E-1,9.515605E-3,-4.062295E-3,-1.414816E-2,-8.457752E-3,-0E0],"categories":[],"categories_nodes":[],"categories_segments":[],"categories_sizes":[],"default_left":[0,0,0,0,0,0,0,0,0,0,0,0,0],"id":62,"left_children":[1,3,5,7,-1,-1,9,11,-1,-1,-1,-1,-1],"loss_changes":[1.0640905E1,2.433189E0,6.391773E-1,2.0220022E0,0E0,0E0,5.9327602E-2,1.6595817E-1,0E0,0E0,0E0,0E0,0E0],"parents":[2147483647,0,0,1,1,2,2,3,3,6,6,7,7],"right_children":[2,4,6,8,-1,-1,10,12,-1,-1,-1,-1,-1],"split_conditions":[1E0,1E0,1E0,1E0,1.4280159E-2,-3.9888153E-4,1E0,1E0,9.515605E-3,-4.062295E-3,-1.414816E-2,-8.457752E-3,-0E0],"split_indices":[17,5,15,2,0,0,12,12,0,0,0,0,0],"split_type":[0,0,0,0,0,0,0,0,0,0,0,0,0],"sum_hessian":[3.5888714E1,2.018127E1,1.5707441E1,6.871299E0,1.3309973E1,3.2776048E0,1.2429837E1,4.566447E0,2.3048522E0,4.993373E0,7.436464E0,2.5197458E0,2.046701E0],"tree_param":{"num_deleted":"0","num_feature":"23","num_nodes":"13","size_leaf_vector":"1"}},{"base_weights":[6.0151193E-2,-4.3144318E-1,6.548843E-1,-1.2605531E-2,2.3637179E-3,1.7879527E-2,5.0767902E-2,-7.6414472E-3,9.312137E-3],"categories":[],"categories_nodes":[],"categories_segments":[],"categories_sizes":[],"default_left":[0,0,0,0,0,0,0,0,0],"id":63,"left_children":[1,3,5,-1,-1,-1,7,-1,-1],"loss_changes":[1.2886862E1,2.9579797E0,2.5551357E0,0E0,0E0,0E0,2.1793602E0,0E0,0E0],"parents":[2147483647,0,0,1,1,2,2,6,6],"right_children":[2,4,6,-1,-1,-1,8,-1,-1],"split_conditions":[1E0,1E0,1E0,-1.2605531E-2,2.3637179E-3,1.7879527E-2,1E0,-7.6414472E-3,9.312137E-3],"split_indices":[3,16,17,0,0,0,14,0,0],"split_type":[0,0,0,0,0,0,0,0,0],"sum_hessian":[3.8025562E1,2.1084738E1,1.6940825E1,1.5427417E1,5.657321E0,1.0868783E1,6.072042E0,2.8515732E0,3.2204685E0],"tree_param":{"num_deleted":"0","num_feature":"23","num_nodes":"9","size_leaf_vector":"1"}},{"base_weights":[-6.058116E-2,-6.2798995E-1,4.9541923E-1,-0E0,-1.5795259E-2,1.42680835E-2,-2.5654742E-3,-1.4055208E-3,7.5240945E-4],"categories":[],"categories_nodes":[],"categories_segments":[],"categories_sizes":[],"default_left":[0,0,0,0,0,0,0,0,0],"id":64,"left_children":[1,3,5,7,-1,-1,-1,-1,-1],"loss_changes":[1.2773054E1,1.9039292E0,3.166645E0,3.269799E-2,0E0,0E0,0E0,0E0,0E0],"parents":[2147483647,0,0,1,1,2,2,3,3],"right_children":[2,4,6,8,-1,-1,-1,-1,-1],"split_conditions":[1E0,1E0,1E0,1E0,-1.5795259E-2,1.42680835E-2,-2.5654742E-3,-1.4055208E-3,7.5240945E-4],"split_indices":[9,20,4,8,0,0,0,0,0],"split_type":[0,0,0,0,0,0,0,0,0],"sum_hessian":[3.4445168E1,1.703347E1,1.7411697E1,4.314123E0,1.2719348E1,1.2820129E1,4.591568E0,2.137168E0,2.1769552E0],"tree_param":{"num_deleted":"0","num_feature":"23","num_nodes":"9","size_leaf_vector":"1"}},{"base_weights":[9.870976E-2,5.9170485E-1,-3.24539E-1,1.6379195E-1,1.7378071E-2,-4.8691705E-1,5.7515777E-3,8.818089E-3,-2.1384642E-3,-1.4399429E-2,2.6888675E-3],"categories":[],"categories_nodes":[],"categories_segments":[],"categories_sizes":[],"default_left":[0,0,0,0,0,0,0,0,0,0,0],"id":65,"left_children":[1,3,5,7,-1,9,-1,-1,-1,-1,-1],"loss_changes":[9.155005E0,1.7572207E0,2.8159325E0,1.1012447E0,0E0,3.3190536E0,0E0,0E0,0E0,0E0,0E0],"parents":[2147483647,0,0,1,1,2,2,3,3,5,5],"right_children":[2,4,6,8,-1,10,-1,-1,-1,-1,-1],"split_conditions":[1E0,1E0,1E0,1E0,1.7378071E-2,1E0,5.7515777E-3,8.818089E-3,-2.1384642E-3,-1.4399429E-2,2.6888675E-3],"split_indices":[20,3,0,15,0,3,0,0,0,0,0],"split_type":[0,0,0,0,0,0,0,0,0,0,0],"sum_hessian":[3.7858315E1,1.715495E1,2.0703365E1,8.903984E0,8.250965E0,1.7105968E1,3.5973973E0,3.8330953E0,5.0708885E0,1.2327897E1,4.7780704E0],"tree_param":{"num_deleted":"0","num_feature":"23","num_nodes":"11","size_leaf_vector":"1"}},{"base_weights":[-6.903679E-3,-3.6583298E-1,3.9724028E-1,-1.2245897E-1,-1.4486297E-2,1.4136951E-2,4.8701886E-2,-0E0,-8.672688E-3,5.866618E-3,-6.272917E-3,2.4111674E-3,-1.0417117E-1,-3.3220851E-3,-0E0],"categories":[],"categories_nodes":[],"categories_segments":[],"categories_sizes":[],"default_left":[0,0,0,0,0,0,0,0,0,0,0,0,0,0,0],"id":66,"left_children":[1,3,5,7,-1,-1,9,11,-1,-1,-1,-1,13,-1,-1],"loss_changes":[6.050497E0,1.5141311E0,1.8393259E0,7.286086E-1,0E0,0E0,1.393534E0,2.2877073E-1,0E0,0E0,0E0,0E0,8.722096E-2,0E0,0E0],"parents":[2147483647,0,0,1,1,2,2,3,3,6,6,7,7,12,12],"right_children":[2,4,6,8,-1,-1,10,12,-1,-1,-1,-1,14,-1,-1],"split_conditions":[1E0,1E0,1E0,1E0,-1.4486297E-2,1.4136951E-2,1E0,1E0,-8.672688E-3,5.866618E-3,-6.272917E-3,2.4111674E-3,1E0,-3.3220851E-3,-0E0],"split_indices":[18,4,15,11,0,0,4,12,0,0,0,0,22,0,0],"split_type":[0,0,0,0,0,0,0,0,0,0,0,0,0,0,0],"sum_hessian":[3.5748394E1,1.934602E1,1.6402372E1,1.4252614E1,5.093405E0,6.749158E0,9.653215E0,1.2001931E1,2.250683E0,6.433313E0,3.2199023E0,6.075005E0,5.926926E0,3.6722915E0,2.2546349E0],"tree_param":{"num_deleted":"0","num_feature":"23","num_nodes":"15","size_leaf_vector":"1"}},{"base_weights":[1.652521E-1,-3.2130095E-1,8.6572266E-1,1.4455988E-1,-4.7842023E-1,2.0163834E-2,3.1579527E-1,-4.2198612E-3,1.0800648E-2,-1.0338497E-2,-1.0601743E-3,-1.8101287E-3,1.2720327E-2],"categories":[],"categories_nodes":[],"categories_segments":[],"categories_sizes":[],"default_left":[0,0,0,0,0,0,0,0,0,0,0,0,0],"id":67,"left_children":[1,3,5,7,9,-1,11,-1,-1,-1,-1,-1,-1],"loss_changes":[1.5604682E1,2.2801714E0,2.3837471E-1,1.6583045E0,1.5615511E-1,0E0,1.386014E0,0E0,0E0,0E0,0E0,0E0,0E0],"parents":[2147483647,0,0,1,1,2,2,3,3,4,4,6,6],"right_children":[2,4,6,8,10,-1,12,-1,-1,-1,-1,-1,-1],"split_conditions":[1E0,1E0,1E0,1E0,1E0,2.0163834E-2,1E0,-4.2198612E-3,1.0800648E-2,-1.0338497E-2,-1.0601743E-3,-1.8101287E-3,1.2720327E-2],"split_indices":[3,15,17,1,2,0,9,0,0,0,0,0,0],"split_type":[0,0,0,0,0,0,0,0,0,0,0,0,0],"sum_hessian":[4.0018288E1,2.4404856E1,1.561343E1,5.8944926E0,1.8510363E1,1.0126366E1,5.4870644E0,3.5745103E0,2.3199823E0,1.5951119E1,2.559244E0,3.0917375E0,2.395327E0],"tree_param":{"num_deleted":"0","num_feature":"23","num_nodes":"13","size_leaf_vector":"1"}},{"base_weights":[-3.4367986E-2,-4.2203885E-1,6.010749E-1,-1.3545556E-2,1.896345E-1,1.6321432E-2,4.1387867E-2,1.0033465E-2,-4.2572455E-3,6.0839495E-3,-4.903775E-3],"categories":[],"categories_nodes":[],"categories_segments":[],"categories_sizes":[],"default_left":[0,0,0,0,0,0,0,0,0,0,0],"id":68,"left_children":[1,3,5,-1,7,-1,9,-1,-1,-1,-1],"loss_changes":[1.1046036E1,4.8510165E0,1.7628222E0,0E0,1.6781234E0,0E0,8.4662056E-1,0E0,0E0,0E0,0E0],"parents":[2147483647,0,0,1,1,2,2,4,4,6,6],"right_children":[2,4,6,-1,8,-1,10,-1,-1,-1,-1],"split_conditions":[1E0,1E0,1E0,-1.3545556E-2,1E0,1.6321432E-2,1E0,1.0033465E-2,-4.2572455E-3,6.0839495E-3,-4.903775E-3],"split_indices":[3,16,17,0,14,0,1,0,0,0,0],"split_type":[0,0,0,0,0,0,0,0,0,0,0],"sum_hessian":[3.889616E1,2.497914E1,1.3917022E1,1.7628382E1,7.3507576E0,8.803622E0,5.1133995E0,4.004177E0,3.3465807E0,2.9351268E0,2.1782727E0],"tree_param":{"num_deleted":"0","num_feature":"23","num_nodes":"11","size_leaf_vector":"1"}},{"base_weights":[-7.4107856E-2,-4.5909595E-1,4.4654745E-1,-1.20601185E-1,-1.3151553E-2,1.3332557E-2,-1.3885934E-2,4.401646E-3,-3.61595E-1,4.176676E-3,-4.6759075E-3,-1.0505157E-2,-9.092495E-4],"categories":[],"categories_nodes":[],"categories_segments":[],"categories_sizes":[],"default_left":[0,0,0,0,0,0,0,0,0,0,0,0,0],"id":69,"left_children":[1,3,5,7,-1,-1,9,-1,11,-1,-1,-1,-1],"loss_changes":[8.256505E0,1.1926513E0,1.9316764E0,1.3157375E0,0E0,0E0,5.582085E-1,0E0,2.777959E-1,0E0,0E0,0E0,0E0],"parents":[2147483647,0,0,1,1,2,2,3,3,6,6,8,8],"right_children":[2,4,6,8,-1,-1,10,-1,12,-1,-1,-1,-1],"split_conditions":[1E0,1E0,1E0,1E0,-1.3151553E-2,1.3332557E-2,1E0,4.401646E-3,1E0,4.176676E-3,-4.6759075E-3,-1.0505157E-2,-9.092495E-4],"split_indices":[3,17,20,15,0,0,17,0,5,0,0,0,0],"split_type":[0,0,0,0,0,0,0,0,0,0,0,0,0],"sum_hessian":[3.5109848E1,2.0609442E1,1.4500403E1,9.772954E0,1.0836489E1,9.195826E0,5.3045783E0,3.8130352E0,5.959919E0,2.2586715E0,3.0459068E0,2.2024982E0,3.7574208E0],"tree_param":{"num_deleted":"0","num_feature":"23","num_nodes":"13","size_leaf_vector":"1"}},{"base_weights":[1.02259345E-1,-3.9505133E-1,5.2130616E-1,-1.289426E-2,1.02863856E-1,-0E0,1.7803472E-2,-3.6241808E-3,7.822433E-3,-3.7083524E-1,9.514141E-3,-9.136971E-3,-1.1064615E-3],"categories":[],"categories_nodes":[],"categories_segments":[],"categories_sizes":[],"default_left":[0,0,0,0,0,0,0,0,0,0,0,0,0],"id":70,"left_children":[1,3,5,-1,7,9,-1,-1,-1,11,-1,-1,-1],"loss_changes":[9.423111E0,2.8873756E0,4.7007327E0,0E0,1.0121381E0,2.8358345E0,0E0,0E0,0E0,6.750858E-2,0E0,0E0,0E0],"parents":[2147483647,0,0,1,1,2,2,4,4,5,5,9,9],"right_children":[2,4,6,-1,8,10,-1,-1,-1,12,-1,-1,-1],"split_conditions":[1E0,1E0,1E0,-1.289426E-2,1E0,1E0,1.7803472E-2,-3.6241808E-3,7.822433E-3,1E0,9.514141E-3,-9.136971E-3,-1.1064615E-3],"split_indices":[9,3,22,0,18,3,0,0,0,4,0,0,0],"split_type":[0,0,0,0,0,0,0,0,0,0,0,0,0],"sum_hessian":[3.913139E1,1.775494E1,2.1376451E1,1.1503916E1,6.251024E0,1.0084237E1,1.1292215E1,3.3600376E0,2.8909862E0,6.056066E0,4.0281706E0,3.2046616E0,2.8514044E0],"tree_param":{"num_deleted":"0","num_feature":"23","num_nodes":"13","size_leaf_vector":"1"}},{"base_weights":[-0E0,-4.608776E-1,6.0463816E-1,-1.481526E-2,8.251443E-2,1.7797993E-1,1.5669366E-2,3.6808974E-1,-7.0079747E-3,-6.44621E-2,8.867085E-3,1.0767295E-2,-5.6099598E-5,-3.0351519E-3,4.4433336E-4],"categories":[],"categories_nodes":[],"categories_segments":[],"categories_sizes":[],"default_left":[0,0,0,0,0,0,0,0,0,0,0,0,0,0,0],"id":71,"left_children":[1,3,5,-1,7,9,-1,11,-1,13,-1,-1,-1,-1,-1],"loss_changes":[1.2114843E1,4.0795965E0,8.205013E-1,0E0,1.7345009E0,7.8893244E-1,0E0,6.353054E-1,0E0,9.142193E-2,0E0,0E0,0E0,0E0,0E0],"parents":[2147483647,0,0,1,1,2,2,4,4,5,5,7,7,9,9],"right_children":[2,4,6,-1,8,10,-1,12,-1,14,-1,-1,-1,-1,-1],"split_conditions":[1E0,1E0,1E0,-1.481526E-2,1E0,1E0,1.5669366E-2,1E0,-7.0079747E-3,1E0,8.867085E-3,1.0767295E-2,-5.6099598E-5,-3.0351519E-3,4.4433336E-4],"split_indices":[22,3,9,0,8,3,0,4,0,12,0,0,0,0,0],"split_type":[0,0,0,0,0,0,0,0,0,0,0,0,0,0,0],"sum_hessian":[3.750928E1,2.1752695E1,1.5756585E1,1.3881259E1,7.8714356E0,6.7518773E0,9.004708E0,5.291829E0,2.5796063E0,4.321467E0,2.4304101E0,3.0679865E0,2.2238426E0,2.1804547E0,2.1410124E0],"tree_param":{"num_deleted":"0","num_feature":"23","num_nodes":"15","size_leaf_vector":"1"}},{"base_weights":[-5.8912974E-2,5.2401185E-1,-5.621007E-1,9.336595E-2,1.4598951E-2,-1.6337944E-2,-0E0,-5.4302923E-3,7.2581456E-3,-4.228961E-3,5.3710304E-3],"categories":[],"categories_nodes":[],"categories_segments":[],"categories_sizes":[],"default_left":[0,0,0,0,0,0,0,0,0,0,0],"id":72,"left_children":[1,3,5,7,-1,-1,9,-1,-1,-1,-1],"loss_changes":[1.3106753E1,1.4633441E0,3.578498E0,1.3405187E0,0E0,0E0,7.6330376E-1,0E0,0E0,0E0,0E0],"parents":[2147483647,0,0,1,1,2,2,3,3,6,6],"right_children":[2,4,6,8,-1,-1,10,-1,-1,-1,-1],"split_conditions":[1E0,1E0,1E0,1E0,1.4598951E-2,-1.6337944E-2,1E0,-5.4302923E-3,7.2581456E-3,-4.228961E-3,5.3710304E-3],"split_indices":[20,9,9,18,0,0,16,0,0,0,0],"split_type":[0,0,0,0,0,0,0,0,0,0,0],"sum_hessian":[3.8645535E1,1.7662521E1,2.0983013E1,7.438557E0,1.0223964E1,1.3717741E1,7.2652717E0,2.8357768E0,4.602781E0,4.0554223E0,3.2098496E0],"tree_param":{"num_deleted":"0","num_feature":"23","num_nodes":"11","size_leaf_vector":"1"}},{"base_weights":[7.088408E-2,-3.5625854E-1,5.8079505E-1,-5.601883E-1,1.009028E-1,1.3990853E-2,2.106319E-3,-1.48703605E-2,-1.16782464E-1,-4.307839E-3,9.966438E-3,1.9646813E-3,-5.484681E-3],"categories":[],"categories_nodes":[],"categories_segments":[],"categories_sizes":[],"default_left":[0,0,0,0,0,0,0,0,0,0,0,0,0],"id":73,"left_children":[1,3,5,7,9,-1,-1,-1,11,-1,-1,-1,-1],"loss_changes":[9.321314E0,2.4309902E0,7.172761E-1,9.3743515E-1,1.5624716E0,0E0,0E0,0E0,4.1420692E-1,0E0,0E0,0E0,0E0],"parents":[2147483647,0,0,1,1,2,2,3,3,4,4,8,8],"right_children":[2,4,6,8,10,-1,-1,-1,12,-1,-1,-1,-1],"split_conditions":[1E0,1E0,1E0,1E0,1E0,1.3990853E-2,2.106319E-3,-1.48703605E-2,1E0,-4.307839E-3,9.966438E-3,1.9646813E-3,-5.484681E-3],"split_indices":[18,22,4,1,14,0,0,0,4,0,0,0,0],"split_type":[0,0,0,0,0,0,0,0,0,0,0,0,0],"sum_hessian":[3.6740498E1,2.0271349E1,1.6469149E1,1.3853153E1,6.4181952E0,1.1710254E1,4.7588944E0,8.04523E0,5.807924E0,4.058762E0,2.3594334E0,2.3951561E0,3.4127676E0],"tree_param":{"num_deleted":"0","num_feature":"23","num_nodes":"13","size_leaf_vector":"1"}},{"base_weights":[-2.515143E-3,-2.505851E-1,5.737214E-1,-5.504205E-1,1.3726717E-1,-0E0,1.4351281E-2,-2.1415061E-1,-1.3644899E-2,-1.02606095E-1,3.219857E-1,-7.993617E-3,1.9689691E-3,-3.9005931E-3,3.9890216E-4,7.4821827E-3,4.069813E-4],"categories":[],"categories_nodes":[],"categories_segments":[],"categories_sizes":[],"default_left":[0,0,0,0,0,0,0,0,0,0,0,0,0,0,0,0,0],"id":74,"left_children":[1,3,5,7,9,-1,-1,11,-1,13,15,-1,-1,-1,-1,-1,-1],"loss_changes":[6.1060414E0,3.8443327E0,1.0561571E0,1.8183184E-1,8.237543E-1,0E0,0E0,7.5120723E-1,0E0,1.4282808E-1,5.3542852E-2,0E0,0E0,0E0,0E0,0E0,0E0],"parents":[2147483647,0,0,1,1,2,2,3,3,4,4,7,7,9,9,10,10],"right_children":[2,4,6,8,10,-1,-1,12,-1,14,16,-1,-1,-1,-1,-1,-1],"split_conditions":[1E0,1E0,1E0,1E0,1E0,-0E0,1.4351281E-2,1E0,-1.3644899E-2,1E0,1E0,-7.993617E-3,1.9689691E-3,-3.9005931E-3,3.9890216E-4,7.4821827E-3,4.069813E-4],"split_indices":[2,9,18,8,1,0,0,1,0,18,12,0,0,0,0,0,0],"split_type":[0,0,0,0,0,0,0,0,0,0,0,0,0,0,0,0,0],"sum_hessian":[3.715034E1,2.7397987E1,9.752355E0,1.50339575E1,1.2364031E1,2.5490286E0,7.203326E0,6.8784604E0,8.155497E0,5.488101E0,6.8759294E0,4.1935997E0,2.6848607E0,3.0475113E0,2.4405897E0,4.682876E0,2.1930532E0],"tree_param":{"num_deleted":"0","num_feature":"23","num_nodes":"17","size_leaf_vector":"1"}},{"base_weights":[3.363741E-2,-3.991254E-1,5.473399E-1,-6.530152E-1,1.0129724E-1,1.2658261E-1,1.7108345E-2,-1.6394315E-2,-6.4253494E-2,-2.166344E-1,9.490735E-3,-1.9981056E-1,1.0337133E-2,-4.0713493E-3,1.3907055E-3,1.6662716E-3,-8.4841885E-3,2.972616E-3,-8.699495E-3],"categories":[],"categories_nodes":[],"categories_segments":[],"categories_sizes":[],"default_left":[0,0,0,0,0,0,0,0,0,0,0,0,0,0,0,0,0,0,0],"id":75,"left_children":[1,3,5,7,9,11,-1,-1,13,15,-1,17,-1,-1,-1,-1,-1,-1,-1],"loss_changes":[1.015169E1,3.4388304E0,2.1940422E0,1.3348556E0,1.6206805E0,1.9845903E0,0E0,0E0,2.0484428E-1,6.416318E-1,0E0,9.701021E-1,0E0,0E0,0E0,0E0,0E0,0E0,0E0],"parents":[2147483647,0,0,1,1,2,2,3,3,4,4,5,5,8,8,9,9,11,11],"right_children":[2,4,6,8,10,12,-1,-1,14,16,-1,18,-1,-1,-1,-1,-1,-1,-1],"split_conditions":[1E0,1E0,1E0,1E0,1E0,1E0,1.7108345E-2,-1.6394315E-2,1E0,1E0,9.490735E-3,1E0,1.0337133E-2,-4.0713493E-3,1.3907055E-3,1.6662716E-3,-8.4841885E-3,2.972616E-3,-8.699495E-3],"split_indices":[9,3,3,22,18,22,0,0,18,8,0,15,0,0,0,0,0,0,0],"split_type":[0,0,0,0,0,0,0,0,0,0,0,0,0,0,0,0,0,0,0],"sum_hessian":[3.958296E1,2.1635864E1,1.7947092E1,1.4011832E1,7.6240325E0,9.649752E0,8.29734E0,9.738101E0,4.2737308E0,4.50743E0,3.1166027E0,5.7731657E0,3.8765864E0,2.0594487E0,2.214282E0,2.1839688E0,2.3234613E0,2.4284241E0,3.3447413E0],"tree_param":{"num_deleted":"0","num_feature":"23","num_nodes":"19","size_leaf_vector":"1"}},{"base_weights":[5.8241494E-2,-5.132099E-1,6.676307E-1,-1.1585672E-2,-5.826602E-5,1.9157618E-2,4.7087155E-2,-3.8923381E-3,6.951215E-3],"categories":[],"categories_nodes":[],"categories_segments":[],"categories_sizes":[],"default_left":[0,0,0,0,0,0,0,0,0],"id":76,"left_children":[1,3,5,-1,-1,-1,7,-1,-1],"loss_changes":[1.4362814E1,5.9473515E-1,3.2590227E0,0E0,0E0,0E0,9.405954E-1,0E0,0E0],"parents":[2147483647,0,0,1,1,2,2,6,6],"right_children":[2,4,6,-1,-1,-1,8,-1,-1],"split_conditions":[1E0,1E0,1E0,-1.1585672E-2,-5.826602E-5,1.9157618E-2,1E0,-3.8923381E-3,6.951215E-3],"split_indices":[9,2,17,0,0,0,22,0,0],"split_type":[0,0,0,0,0,0,0,0,0],"sum_hessian":[3.5204018E1,1.8242502E1,1.6961517E1,1.54451475E1,2.797354E0,1.0225528E1,6.7359896E0,3.9499178E0,2.7860718E0],"tree_param":{"num_deleted":"0","num_feature":"23","num_nodes":"9","size_leaf_vector":"1"}},{"base_weights":[-6.1119758E-2,-4.986742E-1,4.2668787E-1,-7.8809464E-1,2.1158957E-3,-0E0,6.8166655E-1,-1.7313417E-2,-2.9863324E-3,-6.025859E-3,8.448414E-3,3.8209155E-3,-3.2379772E-3,1.7059892E-2,1.2650505E-3],"categories":[],"categories_nodes":[],"categories_segments":[],"categories_sizes":[],"default_left":[0,0,0,0,0,0,0,0,0,0,0,0,0,0,0],"id":77,"left_children":[1,3,5,7,9,11,13,-1,-1,-1,-1,-1,-1,-1,-1],"loss_changes":[8.433996E0,3.1794434E0,2.021107E0,7.592392E-2,1.7276245E0,4.019537E-1,8.8947916E-1,0E0,0E0,0E0,0E0,0E0,0E0,0E0,0E0],"parents":[2147483647,0,0,1,1,2,2,3,3,4,4,5,5,6,6],"right_children":[2,4,6,8,10,12,14,-1,-1,-1,-1,-1,-1,-1,-1],"split_conditions":[1E0,1E0,1E0,1E0,1E0,1E0,1E0,-1.7313417E-2,-2.9863324E-3,-6.025859E-3,8.448414E-3,3.8209155E-3,-3.2379772E-3,1.7059892E-2,1.2650505E-3],"split_indices":[9,18,22,22,1,15,17,0,0,0,0,0,0,0,0],"split_type":[0,0,0,0,0,0,0,0,0,0,0,0,0,0,0],"sum_hessian":[3.345603E1,1.781736E1,1.5638675E1,1.0453979E1,7.363381E0,6.986275E0,8.652399E0,8.092495E0,2.3614838E0,4.4933515E0,2.8700292E0,2.9848168E0,4.0014586E0,5.6309814E0,3.0214176E0],"tree_param":{"num_deleted":"0","num_feature":"23","num_nodes":"15","size_leaf_vector":"1"}},{"base_weights":[-3.6007706E-2,4.4365636E-1,-4.5079675E-1,5.2012112E-2,1.5391137E-2,-1.4435955E-2,5.3150494E-2,-6.7127137E-3,3.4752005E-1,1.0045745E-2,-2.7222547E-1,1.10099455E-2,-1.1432734E-3,2.816165E-3,-1.1413838E-2],"categories":[],"categories_nodes":[],"categories_segments":[],"categories_sizes":[],"default_left":[0,0,0,0,0,0,0,0,0,0,0,0,0,0,0],"id":78,"left_children":[1,3,5,7,-1,-1,9,-1,11,-1,13,-1,-1,-1,-1],"loss_changes":[7.8833737E0,2.0464072E0,3.163097E0,1.702899E0,0E0,0E0,1.9173768E0,0E0,8.8773143E-1,0E0,1.2498269E0,0E0,0E0,0E0,0E0],"parents":[2147483647,0,0,1,1,2,2,3,3,6,6,8,8,10,10],"right_children":[2,4,6,8,-1,-1,10,-1,12,-1,14,-1,-1,-1,-1],"split_conditions":[1E0,1E0,1E0,1E0,1.5391137E-2,-1.4435955E-2,1E0,-6.7127137E-3,1E0,1.0045745E-2,1E0,1.10099455E-2,-1.1432734E-3,2.816165E-3,-1.1413838E-2],"split_indices":[20,1,3,9,0,0,17,0,17,0,4,0,0,0,0],"split_type":[0,0,0,0,0,0,0,0,0,0,0,0,0,0,0],"sum_hessian":[3.3600174E1,1.5261149E1,1.8339025E1,8.79019E0,6.47096E0,1.1340563E1,6.9984627E0,3.333336E0,5.4568534E0,2.5130606E0,4.485402E0,3.2433536E0,2.2135E0,2.265237E0,2.2201648E0],"tree_param":{"num_deleted":"0","num_feature":"23","num_nodes":"15","size_leaf_vector":"1"}},{"base_weights":[-7.519119E-2,-4.0773007E-1,3.014211E-1,-6.693449E-2,-1.19307395E-2,1.3013001E-2,-0E0,-0E0,-2.9779868E-3,-8.389711E-3,2.7503234E-1,6.69649E-4,7.901725E-3],"categories":[],"categories_nodes":[],"categories_segments":[],"categories_sizes":[],"default_left":[0,0,0,0,0,0,0,0,0,0,0,0,0],"id":79,"left_children":[1,3,5,7,-1,-1,9,-1,-1,-1,11,-1,-1],"loss_changes":[5.2070103E0,1.1620662E0,2.1370785E0,6.0689498E-2,0E0,0E0,1.8940988E0,0E0,0E0,0E0,1.5367752E-1,0E0,0E0],"parents":[2147483647,0,0,1,1,2,2,3,3,6,6,10,10],"right_children":[2,4,6,8,-1,-1,10,-1,-1,-1,12,-1,-1],"split_conditions":[1E0,1E0,1E0,1E0,-1.19307395E-2,1.3013001E-2,1E0,-0E0,-2.9779868E-3,-8.389711E-3,1E0,6.69649E-4,7.901725E-3],"split_indices":[18,12,15,8,0,0,5,0,0,0,2,0,0],"split_type":[0,0,0,0,0,0,0,0,0,0,0,0,0],"sum_hessian":[3.546312E1,1.8983953E1,1.6479164E1,8.59423E0,1.0389724E1,6.228521E0,1.0250644E1,6.513982E0,2.080248E0,3.6269827E0,6.623661E0,4.0259686E0,2.5976923E0],"tree_param":{"num_deleted":"0","num_feature":"23","num_nodes":"13","size_leaf_vector":"1"}},{"base_weights":[3.291515E-2,-4.1122007E-1,5.772841E-1,-5.971559E-1,-2.7156372E-2,1.6109003E-2,-1.8692857E-2,-1.5092246E-2,6.775268E-4,5.9846477E-3,-7.696151E-3,4.859214E-3,-5.949917E-3],"categories":[],"categories_nodes":[],"categories_segments":[],"categories_sizes":[],"default_left":[0,0,0,0,0,0,0,0,0,0,0,0,0],"id":80,"left_children":[1,3,5,7,9,-1,11,-1,-1,-1,-1,-1,-1],"loss_changes":[1.0125605E1,1.4629097E0,2.7701402E0,1.7059283E0,1.6429936E0,0E0,8.0527794E-1,0E0,0E0,0E0,0E0,0E0,0E0],"parents":[2147483647,0,0,1,1,2,2,3,3,4,4,6,6],"right_children":[2,4,6,8,10,-1,12,-1,-1,-1,-1,-1,-1],"split_conditions":[1E0,1E0,1E0,1E0,1E0,1.6109003E-2,1E0,-1.5092246E-2,6.775268E-4,5.9846477E-3,-7.696151E-3,4.859214E-3,-5.949917E-3],"split_indices":[3,1,17,0,4,0,12,0,0,0,0,0,0],"split_type":[0,0,0,0,0,0,0,0,0,0,0,0,0],"sum_hessian":[3.579756E1,1.9915472E1,1.5882089E1,1.1946559E1,7.9689136E0,1.0965256E1,4.916834E0,9.344362E0,2.6021967E0,4.1303844E0,3.8385293E0,2.3653238E0,2.55151E0],"tree_param":{"num_deleted":"0","num_feature":"23","num_nodes":"13","size_leaf_vector":"1"}},{"base_weights":[7.676855E-2,-3.500547E-1,5.785935E-1,-1.201673E-2,7.830437E-2,1.5860718E-2,8.437012E-2,-3.638256E-3,2.3209779E-1,5.0772163E-3,-1.8947785E-3,6.255091E-3,4.7018824E-4],"categories":[],"categories_nodes":[],"categories_segments":[],"categories_sizes":[],"default_left":[0,0,0,0,0,0,0,0,0,0,0,0,0],"id":81,"left_children":[1,3,5,-1,7,-1,9,-1,11,-1,-1,-1,-1],"loss_changes":[8.737712E0,2.614355E0,1.6050277E0,0E0,5.569819E-1,0E0,3.8618326E-1,0E0,5.2044183E-2,0E0,0E0,0E0,0E0],"parents":[2147483647,0,0,1,1,2,2,4,4,6,6,8,8],"right_children":[2,4,6,-1,8,-1,10,-1,12,-1,-1,-1,-1],"split_conditions":[1E0,1E0,1E0,-1.201673E-2,1E0,1.5860718E-2,1E0,-3.638256E-3,1E0,5.0772163E-3,-1.8947785E-3,6.255091E-3,4.7018824E-4],"split_indices":[9,18,15,0,5,0,12,0,8,0,0,0,0],"split_type":[0,0,0,0,0,0,0,0,0,0,0,0,0],"sum_hessian":[3.4743893E1,1.904991E1,1.5693984E1,1.1548073E1,7.501836E0,9.397796E0,6.2961884E0,2.0998852E0,5.401951E0,3.165375E0,3.1308136E0,2.1237535E0,3.2781973E0],"tree_param":{"num_deleted":"0","num_feature":"23","num_nodes":"13","size_leaf_vector":"1"}},{"base_weights":[-0E0,-4.7331348E-1,6.721595E-1,-6.779384E-1,7.3176706E-3,7.6575553E-1,4.5126205E-4,-1.7723223E-2,-1.5547329E-1,1.8505134E-2,4.960923E-3,-7.2750496E-3,3.9691743E-3],"categories":[],"categories_nodes":[],"categories_segments":[],"categories_sizes":[],"default_left":[0,0,0,0,0,0,0,0,0,0,0,0,0],"id":82,"left_children":[1,3,5,7,-1,9,-1,-1,11,-1,-1,-1,-1],"loss_changes":[1.2639263E1,4.8139253E0,7.878566E-1,1.554676E0,0E0,2.3104572E-1,0E0,0E0,9.5825434E-1,0E0,0E0,0E0,0E0],"parents":[2147483647,0,0,1,1,2,2,3,3,5,5,8,8],"right_children":[2,4,6,8,-1,10,-1,-1,12,-1,-1,-1,-1],"split_conditions":[1E0,1E0,1E0,1E0,7.3176706E-3,1E0,4.5126205E-4,-1.7723223E-2,1E0,1.8505134E-2,4.960923E-3,-7.2750496E-3,3.9691743E-3],"split_indices":[3,2,8,9,0,12,0,0,22,0,0,0,0],"split_type":[0,0,0,0,0,0,0,0,0,0,0,0,0],"sum_hessian":[3.3740524E1,2.0336596E1,1.3403928E1,1.7004993E1,3.331601E0,1.0977865E1,2.4260633E0,1.0392161E1,6.612832E0,6.2915463E0,4.6863184E0,4.466349E0,2.1464827E0],"tree_param":{"num_deleted":"0","num_feature":"23","num_nodes":"13","size_leaf_vector":"1"}},{"base_weights":[5.5589676E-2,-3.3752835E-1,6.18818E-1,-6.3276565E-1,2.565864E-1,3.9083295E-2,1.8341888E-2,-1.4368602E-2,-3.0167159E-3,-0E0,7.866331E-3,3.3210889E-3,-1.559444E-3],"categories":[],"categories_nodes":[],"categories_segments":[],"categories_sizes":[],"default_left":[0,0,0,0,0,0,0,0,0,0,0,0,0],"id":83,"left_children":[1,3,5,7,9,11,-1,-1,-1,-1,-1,-1,-1],"loss_changes":[9.254444E0,4.865245E0,2.6722422E0,2.2262478E-1,3.9008206E-1,1.9316798E-1,0E0,0E0,0E0,0E0,0E0,0E0,0E0],"parents":[2147483647,0,0,1,1,2,2,3,3,4,4,5,5],"right_children":[2,4,6,8,10,12,-1,-1,-1,-1,-1,-1,-1],"split_conditions":[1E0,1E0,1E0,1E0,1E0,1E0,1.8341888E-2,-1.4368602E-2,-3.0167159E-3,-0E0,7.866331E-3,3.3210889E-3,-1.559444E-3],"split_indices":[3,16,9,22,22,12,0,0,0,0,0,0,0],"split_type":[0,0,0,0,0,0,0,0,0,0,0,0,0],"sum_hessian":[3.5712704E1,2.153143E1,1.41812725E1,1.4478168E1,7.0532627E0,6.198121E0,7.9831514E0,1.0690664E1,3.7875032E0,3.2532072E0,3.8000555E0,3.1903374E0,3.0077834E0],"tree_param":{"num_deleted":"0","num_feature":"23","num_nodes":"13","size_leaf_vector":"1"}},{"base_weights":[1.4171597E-1,-3.5182074E-1,6.060018E-1,-0E0,-1.1273516E-2,1.4056974E-2,1.7948663E-1,-4.376487E-3,4.3284944E-3,6.621264E-3,-6.3472934E-4],"categories":[],"categories_nodes":[],"categories_segments":[],"categories_sizes":[],"default_left":[0,0,0,0,0,0,0,0,0,0,0],"id":84,"left_children":[1,3,5,7,-1,-1,9,-1,-1,-1,-1],"loss_changes":[9.303392E0,1.4377975E0,2.992406E-1,6.4560425E-1,0E0,0E0,3.551219E-1,0E0,0E0,0E0,0E0],"parents":[2147483647,0,0,1,1,2,2,3,3,6,6],"right_children":[2,4,6,8,-1,-1,10,-1,-1,-1,-1],"split_conditions":[1E0,1E0,1E0,1E0,-1.1273516E-2,1.4056974E-2,1E0,-4.376487E-3,4.3284944E-3,6.621264E-3,-6.3472934E-4],"split_indices":[9,8,4,1,0,0,12,0,0,0,0],"split_type":[0,0,0,0,0,0,0,0,0,0,0],"sum_hessian":[3.4587784E1,1.69092E1,1.7678583E1,7.6279864E0,9.281214E0,1.2441068E1,5.237516E0,3.9644706E0,3.6635156E0,2.6096053E0,2.6279109E0],"tree_param":{"num_deleted":"0","num_feature":"23","num_nodes":"11","size_leaf_vector":"1"}},{"base_weights":[1.3465615E-1,3.7659496E-1,-2.1599346E-1,1.1423101E-2,-6.65773E-2,-1.456126E-3,-7.319479E-3,4.3057795E-3,-5.5569625E-3],"categories":[],"categories_nodes":[],"categories_segments":[],"categories_sizes":[],"default_left":[0,0,0,0,0,0,0,0,0],"id":85,"left_children":[1,3,5,-1,7,-1,-1,-1,-1],"loss_changes":[3.297825E0,2.1556327E0,1.7829537E-1,0E0,7.421884E-1,0E0,0E0,0E0,0E0],"parents":[2147483647,0,0,1,1,2,2,4,4],"right_children":[2,4,6,-1,8,-1,-1,-1,-1],"split_conditions":[1E0,1E0,1E0,1.1423101E-2,1E0,-1.456126E-3,-7.319479E-3,4.3057795E-3,-5.5569625E-3],"split_indices":[17,4,4,0,15,0,0,0,0],"split_type":[0,0,0,0,0,0,0,0,0],"sum_hessian":[3.2617985E1,1.9507042E1,1.3110943E1,1.326737E1,6.2396727E0,9.669368E0,3.4415743E0,2.2432024E0,3.99647E0],"tree_param":{"num_deleted":"0","num_feature":"23","num_nodes":"9","size_leaf_vector":"1"}},{"base_weights":[-6.800067E-2,-4.8552126E-1,5.341151E-1,-1.5698822E-2,1.1068678E-2,1.4861017E-2,-0E0,-2.4732071E-1,3.084154E-1,-4.718223E-3,5.1359753E-3,9.973845E-4,-8.979284E-3,-0E0,8.457582E-3],"categories":[],"categories_nodes":[],"categories_segments":[],"categories_sizes":[],"default_left":[0,0,0,0,0,0,0,0,0,0,0,0,0,0,0],"id":86,"left_children":[1,3,5,-1,7,-1,9,11,13,-1,-1,-1,-1,-1,-1],"loss_changes":[1.1052278E1,4.0355196E0,1.9393711E0,0E0,1.198257E0,0E0,6.7913187E-1,6.2465894E-1,2.014975E-1,0E0,0E0,0E0,0E0,0E0,0E0],"parents":[2147483647,0,0,1,1,2,2,4,4,6,6,7,7,8,8],"right_children":[2,4,6,-1,8,-1,10,12,14,-1,-1,-1,-1,-1,-1],"split_conditions":[1E0,1E0,1E0,-1.5698822E-2,1E0,1.4861017E-2,1E0,1E0,1E0,-4.718223E-3,5.1359753E-3,9.973845E-4,-8.979284E-3,-0E0,8.457582E-3],"split_indices":[3,9,12,0,16,0,9,12,18,0,0,0,0,0,0],"split_type":[0,0,0,0,0,0,0,0,0,0,0,0,0,0,0],"sum_hessian":[3.790771E1,2.2924461E1,1.4983251E1,1.3465919E1,9.458543E0,9.804382E0,5.1788692E0,4.970965E0,4.487578E0,2.642064E0,2.536805E0,2.5212536E0,2.4497113E0,2.3780718E0,2.1095061E0],"tree_param":{"num_deleted":"0","num_feature":"23","num_nodes":"15","size_leaf_vector":"1"}},{"base_weights":[2.2064118E-2,5.684245E-1,-3.982712E-1,1.2630039E-2,1.9112976E-3,-1.2915092E-2,-0E0,4.413792E-3,-3.2779654E-3],"categories":[],"categories_nodes":[],"categories_segments":[],"categories_sizes":[],"default_left":[0,0,0,0,0,0,0,0,0],"id":87,"left_children":[1,3,5,-1,-1,-1,7,-1,-1],"loss_changes":[9.650066E0,2.2126245E-1,2.3975685E0,0E0,0E0,0E0,5.4358524E-1,0E0,0E0],"parents":[2147483647,0,0,1,1,2,2,6,6],"right_children":[2,4,6,-1,-1,-1,8,-1,-1],"split_conditions":[1E0,1E0,1E0,1.2630039E-2,1.9112976E-3,-1.2915092E-2,1E0,4.413792E-3,-3.2779654E-3],"split_indices":[20,8,9,0,0,0,15,0,0],"split_type":[0,0,0,0,0,0,0,0,0],"sum_hessian":[3.591442E1,1.53635025E1,2.0550919E1,1.229408E1,3.0694232E0,1.1707983E1,8.842935E0,3.6326222E0,5.210313E0],"tree_param":{"num_deleted":"0","num_feature":"23","num_nodes":"9","size_leaf_vector":"1"}},{"base_weights":[-3.755542E-4,-2.5460118E-1,3.2363722E-1,-2.3600632E-2,-9.074483E-3,4.5844236E-1,-2.0651435E-3,1.4319232E-1,-7.106083E-3,1.1298027E-2,1.5001942E-1,2.716853E-1,-1.3986429E-3,-0E0,4.548155E-3,1.014474E-2,-2.7612816E-3],"categories":[],"categories_nodes":[],"categories_segments":[],"categories_sizes":[],"default_left":[0,0,0,0,0,0,0,0,0,0,0,0,0,0,0,0,0],"id":88,"left_children":[1,3,5,7,-1,9,-1,11,-1,-1,13,15,-1,-1,-1,-1,-1],"loss_changes":[3.3707647E0,9.472449E-1,1.2328222E0,9.943615E-1,0E0,7.477927E-2,0E0,4.0817988E-1,0E0,0E0,1.3291968E-1,1.0831614E0,0E0,0E0,0E0,0E0,0E0],"parents":[2147483647,0,0,1,1,2,2,3,3,5,5,7,7,10,10,11,11],"right_children":[2,4,6,8,-1,10,-1,12,-1,-1,14,16,-1,-1,-1,-1,-1],"split_conditions":[1E0,1E0,1E0,1E0,-9.074483E-3,1E0,-2.0651435E-3,1E0,-7.106083E-3,1.1298027E-2,1E0,1E0,-1.3986429E-3,-0E0,4.548155E-3,1.014474E-2,-2.7612816E-3],"split_indices":[22,12,8,8,0,12,0,16,0,0,16,18,0,0,0,0,0],"split_type":[0,0,0,0,0,0,0,0,0,0,0,0,0,0,0,0,0],"sum_hessian":[3.508774E1,2.0367224E1,1.4720518E1,1.1447301E1,8.919924E0,1.1375232E1,3.3452861E0,8.350397E0,3.096904E0,6.1196856E0,5.2555466E0,5.280736E0,3.0696614E0,2.092499E0,3.1630476E0,3.2098434E0,2.0708923E0],"tree_param":{"num_deleted":"0","num_feature":"23","num_nodes":"17","size_leaf_vector":"1"}},{"base_weights":[-1.7860306E-2,-3.3116144E-1,3.8761222E-1,-1.1975446E-2,1.9422472E-1,1.3993966E-2,-1.1743475E-1,6.6692024E-3,-5.3907564E-4,3.5631694E-3,-8.445562E-3],"categories":[],"categories_nodes":[],"categories_segments":[],"categories_sizes":[],"default_left":[0,0,0,0,0,0,0,0,0,0,0],"id":89,"left_children":[1,3,5,-1,7,-1,9,-1,-1,-1,-1],"loss_changes":[5.4174967E0,3.8454177E0,3.2646937E0,0E0,4.0272915E-1,0E0,1.1175289E0,0E0,0E0,0E0,0E0],"parents":[2147483647,0,0,1,1,2,2,4,4,6,6],"right_children":[2,4,6,-1,8,-1,10,-1,-1,-1,-1],"split_conditions":[1E0,1E0,1E0,-1.1975446E-2,1E0,1.3993966E-2,1E0,6.6692024E-3,-5.3907564E-4,3.5631694E-3,-8.445562E-3],"split_indices":[3,22,17,0,17,0,1,0,0,0,0],"split_type":[0,0,0,0,0,0,0,0,0,0,0],"sum_hessian":[3.6703236E1,2.1293333E1,1.5409903E1,1.4082101E1,7.211232E0,9.054548E0,6.355355E0,4.045695E0,3.1655376E0,3.5265043E0,2.8288505E0],"tree_param":{"num_deleted":"0","num_feature":"23","num_nodes":"11","size_leaf_vector":"1"}},{"base_weights":[1.5779076E-2,-3.6911345E-1,4.404251E-1,-9.3294665E-2,-1.4182395E-2,-0E0,1.5809802E-2,-9.591545E-3,7.8879364E-2,5.8363886E-3,-7.297859E-3,-7.2716646E-2,5.7747993E-3,-3.0508E-3,6.4156926E-4],